{"learner":{"attributes":{"scikit_learn":"{\"_estimator_type\": \"classifier\"}"},"feature_names":["machineID","volt","rotate","pressure","vibration","time_since_last_comp1","time_since_last_comp2","time_since_last_comp3","time_since_last_comp4","time_since_last_error1","time_since_last_error2","time_since_last_error3","time_since_last_error4","time_since_last_error5","errorID_error1_x","errorID_error2_x","errorID_error3_x","errorID_error4_x","errorID_error5_x","errorID_error1_y","errorID_error2_y","errorID_error3_y","errorID_error4_y","errorID_error5_y","model","age"],"feature_types":["int","float","float","float","float","float","float","float","float","float","float","float","float","float","float","float","float","float","float","int","int","int","int","int","int","int"],"gradient_booster":{"model":{"gbtree_model_param":{"num_parallel_tree":"1","num_trees":"2700"},"iteration_indptr":[0,9,18,27,36,45,54,63,72,81,90,99,108,117,126,135,144,153,162,171,180,189,198,207,216,225,234,243,252,261,270,279,288,297,306,315,324,333,342,351,360,369,378,387,396,405,414,423,432,441,450,459,468,477,486,495,504,513,522,531,540,549,558,567,576,585,594,603,612,621,630,639,648,657,666,675,684,693,702,711,720,729,738,747,756,765,774,783,792,801,810,819,828,837,846,855,864,873,882,891,900,909,918,927,936,945,954,963,972,981,990,999,1008,1017,1026,1035,1044,1053,1062,1071,1080,1089,1098,1107,1116,1125,1134,1143,1152,1161,1170,1179,1188,1197,1206,1215,1224,1233,1242,1251,1260,1269,1278,1287,1296,1305,1314,1323,1332,1341,1350,1359,1368,1377,1386,1395,1404,1413,1422,1431,1440,1449,1458,1467,1476,1485,1494,1503,1512,1521,1530,1539,1548,1557,1566,1575,1584,1593,1602,1611,1620,1629,1638,1647,1656,1665,1674,1683,1692,1701,1710,1719,1728,1737,1746,1755,1764,1773,1782,1791,1800,1809,1818,1827,1836,1845,1854,1863,1872,1881,1890,1899,1908,1917,1926,1935,1944,1953,1962,1971,1980,1989,1998,2007,2016,2025,2034,2043,2052,2061,2070,2079,2088,2097,2106,2115,2124,2133,2142,2151,2160,2169,2178,2187,2196,2205,2214,2223,2232,2241,2250,2259,2268,2277,2286,2295,2304,2313,2322,2331,2340,2349,2358,2367,2376,2385,2394,2403,2412,2421,2430,2439,2448,2457,2466,2475,2484,2493,2502,2511,2520,2529,2538,2547,2556,2565,2574,2583,2592,2601,2610,2619,2628,2637,2646,2655,2664,2673,2682,2691,2700],"tree_info":[0,1,2,3,4,5,6,7,8,0,1,2,3,4,5,6,7,8,0,1,2,3,4,5,6,7,8,0,1,2,3,4,5,6,7,8,0,1,2,3,4,5,6,7,8,0,1,2,3,4,5,6,7,8,0,1,2,3,4,5,6,7,8,0,1,2,3,4,5,6,7,8,0,1,2,3,4,5,6,7,8,0,1,2,3,4,5,6,7,8,0,1,2,3,4,5,6,7,8,0,1,2,3,4,5,6,7,8,0,1,2,3,4,5,6,7,8,0,1,2,3,4,5,6,7,8,0,1,2,3,4,5,6,7,8,0,1,2,3,4,5,6,7,8,0,1,2,3,4,5,6,7,8,0,1,2,3,4,5,6,7,8,0,1,2,3,4,5,6,7,8,0,1,2,3,4,5,6,7,8,0,1,2,3,4,5,6,7,8,0,1,2,3,4,5,6,7,8,0,1,2,3,4,5,6,7,8,0,1,2,3,4,5,6,7,8,0,1,2,3,4,5,6,7,8,0,1,2,3,4,5,6,7,8,0,1,2,3,4,5,6,7,8,0,1,2,3,4,5,6,7,8,0,1,2,3,4,5,6,7,8,0,1,2,3,4,5,6,7,8,0,1,2,3,4,5,6,7,8,0,1,2,3,4,5,6,7,8,0,1,2,3,4,5,6,7,8,0,1,2,3,4,5,6,7,8,0,1,2,3,4,5,6,7,8,0,1,2,3,4,5,6,7,8,0,1,2,3,4,5,6,7,8,0,1,2,3,4,5,6,7,8,0,1,2,3,4,5,6,7,8,0,1,2,3,4,5,6,7,8,0,1,2,3,4,5,6,7,8,0,1,2,3,4,5,6,7,8,0,1,2,3,4,5,6,7,8,0,1,2,3,4,5,6,7,8,0,1,2,3,4,5,6,7,8,0,1,2,3,4,5,6,7,8,0,1,2,3,4,5,6,7,8,0,1,2,3,4,5,6,7,8,0,1,2,3,4,5,6,7,8,0,1,2,3,4,5,6,7,8,0,1,2,3,4,5,6,7,8,0,1,2,3,4,5,6,7,8,0,1,2,3,4,5,6,7,8,0,1,2,3,4,5,6,7,8,0,1,2,3,4,5,6,7,8,0,1,2,3,4,5,6,7,8,0,1,2,3,4,5,6,7,8,0,1,2,3,4,5,6,7,8,0,1,2,3,4,5,6,7,8,0,1,2,3,4,5,6,7,8,0,1,2,3,4,5,6,7,8,0,1,2,3,4,5,6,7,8,0,1,2,3,4,5,6,7,8,0,1,2,3,4,5,6,7,8,0,1,2,3,4,5,6,7,8,0,1,2,3,4,5,6,7,8,0,1,2,3,4,5,6,7,8,0,1,2,3,4,5,6,7,8,0,1,2,3,4,5,6,7,8,0,1,2,3,4,5,6,7,8,0,1,2,3,4,5,6,7,8,0,1,2,3,4,5,6,7,8,0,1,2,3,4,5,6,7,8,0,1,2,3,4,5,6,7,8,0,1,2,3,4,5,6,7,8,0,1,2,3,4,5,6,7,8,0,1,2,3,4,5,6,7,8,0,1,2,3,4,5,6,7,8,0,1,2,3,4,5,6,7,8,0,1,2,3,4,5,6,7,8,0,1,2,3,4,5,6,7,8,0,1,2,3,4,5,6,7,8,0,1,2,3,4,5,6,7,8,0,1,2,3,4,5,6,7,8,0,1,2,3,4,5,6,7,8,0,1,2,3,4,5,6,7,8,0,1,2,3,4,5,6,7,8,0,1,2,3,4,5,6,7,8,0,1,2,3,4,5,6,7,8,0,1,2,3,4,5,6,7,8,0,1,2,3,4,5,6,7,8,0,1,2,3,4,5,6,7,8,0,1,2,3,4,5,6,7,8,0,1,2,3,4,5,6,7,8,0,1,2,3,4,5,6,7,8,0,1,2,3,4,5,6,7,8,0,1,2,3,4,5,6,7,8,0,1,2,3,4,5,6,7,8,0,1,2,3,4,5,6,7,8,0,1,2,3,4,5,6,7,8,0,1,2,3,4,5,6,7,8,0,1,2,3,4,5,6,7,8,0,1,2,3,4,5,6,7,8,0,1,2,3,4,5,6,7,8,0,1,2,3,4,5,6,7,8,0,1,2,3,4,5,6,7,8,0,1,2,3,4,5,6,7,8,0,1,2,3,4,5,6,7,8,0,1,2,3,4,5,6,7,8,0,1,2,3,4,5,6,7,8,0,1,2,3,4,5,6,7,8,0,1,2,3,4,5,6,7,8,0,1,2,3,4,5,6,7,8,0,1,2,3,4,5,6,7,8,0,1,2,3,4,5,6,7,8,0,1,2,3,4,5,6,7,8,0,1,2,3,4,5,6,7,8,0,1,2,3,4,5,6,7,8,0,1,2,3,4,5,6,7,8,0,1,2,3,4,5,6,7,8,0,1,2,3,4,5,6,7,8,0,1,2,3,4,5,6,7,8,0,1,2,3,4,5,6,7,8,0,1,2,3,4,5,6,7,8,0,1,2,3,4,5,6,7,8,0,1,2,3,4,5,6,7,8,0,1,2,3,4,5,6,7,8,0,1,2,3,4,5,6,7,8,0,1,2,3,4,5,6,7,8,0,1,2,3,4,5,6,7,8,0,1,2,3,4,5,6,7,8,0,1,2,3,4,5,6,7,8,0,1,2,3,4,5,6,7,8,0,1,2,3,4,5,6,7,8,0,1,2,3,4,5,6,7,8,0,1,2,3,4,5,6,7,8,0,1,2,3,4,5,6,7,8,0,1,2,3,4,5,6,7,8,0,1,2,3,4,5,6,7,8,0,1,2,3,4,5,6,7,8,0,1,2,3,4,5,6,7,8,0,1,2,3,4,5,6,7,8,0,1,2,3,4,5,6,7,8,0,1,2,3,4,5,6,7,8,0,1,2,3,4,5,6,7,8,0,1,2,3,4,5,6,7,8,0,1,2,3,4,5,6,7,8,0,1,2,3,4,5,6,7,8,0,1,2,3,4,5,6,7,8,0,1,2,3,4,5,6,7,8,0,1,2,3,4,5,6,7,8,0,1,2,3,4,5,6,7,8,0,1,2,3,4,5,6,7,8,0,1,2,3,4,5,6,7,8,0,1,2,3,4,5,6,7,8,0,1,2,3,4,5,6,7,8,0,1,2,3,4,5,6,7,8,0,1,2,3,4,5,6,7,8,0,1,2,3,4,5,6,7,8,0,1,2,3,4,5,6,7,8,0,1,2,3,4,5,6,7,8,0,1,2,3,4,5,6,7,8,0,1,2,3,4,5,6,7,8,0,1,2,3,4,5,6,7,8,0,1,2,3,4,5,6,7,8,0,1,2,3,4,5,6,7,8,0,1,2,3,4,5,6,7,8,0,1,2,3,4,5,6,7,8,0,1,2,3,4,5,6,7,8,0,1,2,3,4,5,6,7,8,0,1,2,3,4,5,6,7,8,0,1,2,3,4,5,6,7,8,0,1,2,3,4,5,6,7,8,0,1,2,3,4,5,6,7,8,0,1,2,3,4,5,6,7,8,0,1,2,3,4,5,6,7,8,0,1,2,3,4,5,6,7,8,0,1,2,3,4,5,6,7,8,0,1,2,3,4,5,6,7,8,0,1,2,3,4,5,6,7,8,0,1,2,3,4,5,6,7,8,0,1,2,3,4,5,6,7,8,0,1,2,3,4,5,6,7,8,0,1,2,3,4,5,6,7,8,0,1,2,3,4,5,6,7,8,0,1,2,3,4,5,6,7,8,0,1,2,3,4,5,6,7,8,0,1,2,3,4,5,6,7,8,0,1,2,3,4,5,6,7,8,0,1,2,3,4,5,6,7,8,0,1,2,3,4,5,6,7,8,0,1,2,3,4,5,6,7,8,0,1,2,3,4,5,6,7,8,0,1,2,3,4,5,6,7,8,0,1,2,3,4,5,6,7,8,0,1,2,3,4,5,6,7,8,0,1,2,3,4,5,6,7,8,0,1,2,3,4,5,6,7,8,0,1,2,3,4,5,6,7,8,0,1,2,3,4,5,6,7,8,0,1,2,3,4,5,6,7,8,0,1,2,3,4,5,6,7,8,0,1,2,3,4,5,6,7,8,0,1,2,3,4,5,6,7,8,0,1,2,3,4,5,6,7,8,0,1,2,3,4,5,6,7,8,0,1,2,3,4,5,6,7,8,0,1,2,3,4,5,6,7,8,0,1,2,3,4,5,6,7,8,0,1,2,3,4,5,6,7,8,0,1,2,3,4,5,6,7,8,0,1,2,3,4,5,6,7,8,0,1,2,3,4,5,6,7,8,0,1,2,3,4,5,6,7,8,0,1,2,3,4,5,6,7,8,0,1,2,3,4,5,6,7,8,0,1,2,3,4,5,6,7,8,0,1,2,3,4,5,6,7,8,0,1,2,3,4,5,6,7,8,0,1,2,3,4,5,6,7,8,0,1,2,3,4,5,6,7,8,0,1,2,3,4,5,6,7,8,0,1,2,3,4,5,6,7,8,0,1,2,3,4,5,6,7,8,0,1,2,3,4,5,6,7,8,0,1,2,3,4,5,6,7,8,0,1,2,3,4,5,6,7,8,0,1,2,3,4,5,6,7,8,0,1,2,3,4,5,6,7,8,0,1,2,3,4,5,6,7,8,0,1,2,3,4,5,6,7,8,0,1,2,3,4,5,6,7,8,0,1,2,3,4,5,6,7,8,0,1,2,3,4,5,6,7,8,0,1,2,3,4,5,6,7,8,0,1,2,3,4,5,6,7,8,0,1,2,3,4,5,6,7,8,0,1,2,3,4,5,6,7,8,0,1,2,3,4,5,6,7,8,0,1,2,3,4,5,6,7,8,0,1,2,3,4,5,6,7,8,0,1,2,3,4,5,6,7,8,0,1,2,3,4,5,6,7,8,0,1,2,3,4,5,6,7,8,0,1,2,3,4,5,6,7,8,0,1,2,3,4,5,6,7,8,0,1,2,3,4,5,6,7,8,0,1,2,3,4,5,6,7,8,0,1,2,3,4,5,6,7,8,0,1,2,3,4,5,6,7,8,0,1,2,3,4,5,6,7,8,0,1,2,3,4,5,6,7,8,0,1,2,3,4,5,6,7,8,0,1,2,3,4,5,6,7,8,0,1,2,3,4,5,6,7,8,0,1,2,3,4,5,6,7,8,0,1,2,3,4,5,6,7,8,0,1,2,3,4,5,6,7,8,0,1,2,3,4,5,6,7,8,0,1,2,3,4,5,6,7,8,0,1,2,3,4,5,6,7,8,0,1,2,3,4,5,6,7,8,0,1,2,3,4,5,6,7,8,0,1,2,3,4,5,6,7,8,0,1,2,3,4,5,6,7,8,0,1,2,3,4,5,6,7,8,0,1,2,3,4,5,6,7,8,0,1,2,3,4,5,6,7,8,0,1,2,3,4,5,6,7,8,0,1,2,3,4,5,6,7,8,0,1,2,3,4,5,6,7,8,0,1,2,3,4,5,6,7,8,0,1,2,3,4,5,6,7,8,0,1,2,3,4,5,6,7,8,0,1,2,3,4,5,6,7,8,0,1,2,3,4,5,6,7,8,0,1,2,3,4,5,6,7,8,0,1,2,3,4,5,6,7,8,0,1,2,3,4,5,6,7,8,0,1,2,3,4,5,6,7,8,0,1,2,3,4,5,6,7,8,0,1,2,3,4,5,6,7,8,0,1,2,3,4,5,6,7,8,0,1,2,3,4,5,6,7,8,0,1,2,3,4,5,6,7,8,0,1,2,3,4,5,6,7,8,0,1,2,3,4,5,6,7,8,0,1,2,3,4,5,6,7,8,0,1,2,3,4,5,6,7,8,0,1,2,3,4,5,6,7,8,0,1,2,3,4,5,6,7,8,0,1,2,3,4,5,6,7,8,0,1,2,3,4,5,6,7,8,0,1,2,3,4,5,6,7,8,0,1,2,3,4,5,6,7,8,0,1,2,3,4,5,6,7,8,0,1,2,3,4,5,6,7,8,0,1,2,3,4,5,6,7,8,0,1,2,3,4,5,6,7,8,0,1,2,3,4,5,6,7,8],"trees":[{"base_weights":[3.657339E0,4.1864926E-1,3.9916618E0,3.7557635E0,-4.7864625E-1,4.1621866E0,1.0111544E0,3.9204187E0,1.2918661E-3,7.954357E-2,-5.436461E-1,4.3270526E0,1.12349E0,3.887078E0,-5.041456E-1,1.2441877E-1,2.7442623E-2,-1.6524509E-2,-2.101167E-3,1.3311717E-1,4.7475606E-2,1.23532586E-1,-1.0714755E-2,1.21691674E-1,2.7979275E-3,-1.5590844E-2,4.576271E-3],"categories":[],"categories_nodes":[],"categories_segments":[],"categories_sizes":[],"default_left":[0,0,0,0,0,0,0,0,0,0,0,0,0,0,0,0,0,0,0,0,0,0,0,0,0,0,0],"id":0,"left_children":[1,3,5,7,9,11,13,15,-1,-1,17,19,21,23,25,-1,-1,-1,-1,-1,-1,-1,-1,-1,-1,-1,-1],"loss_changes":[1.9970488E3,5.2233875E2,8.461465E2,2.2419739E1,2.9495764E1,7.8780273E2,4.0229343E2,2.032544E1,0E0,0E0,4.2300797E-1,4.4673242E2,3.684619E2,2.0057526E1,7.026491E-1,0E0,0E0,0E0,0E0,0E0,0E0,0E0,0E0,0E0,0E0,0E0,0E0],"parents":[2147483647,0,0,1,1,2,2,3,3,4,4,5,5,6,6,7,7,10,10,11,11,12,12,13,13,14,14],"right_children":[2,4,6,8,10,12,14,16,-1,-1,18,20,22,24,26,-1,-1,-1,-1,-1,-1,-1,-1,-1,-1,-1,-1],"split_conditions":[3.9354474E2,1E0,1E0,1.9010712E2,1E0,1.852591E2,4.2902042E1,1.0535088E2,1.2918661E-3,7.954357E-2,2E0,1.2149161E2,1E0,1.1492877E2,1.04583336E2,1.2441877E-1,2.7442623E-2,-1.6524509E-2,-2.101167E-3,1.3311717E-1,4.7475606E-2,1.23532586E-1,-1.0714755E-2,1.21691674E-1,2.7979275E-3,-1.5590844E-2,4.576271E-3],"split_indices":[2,16,18,1,15,1,4,3,0,0,14,3,14,3,10,0,0,0,0,0,0,0,0,0,0,0,0],"split_type":[0,0,0,0,0,0,0,0,0,0,0,0,0,0,0,0,0,0,0,0,0,0,0,0,0,0,0],"sum_hessian":[1.8449382E3,1.7283951E2,1.6720988E3,3.595062E1,1.3688889E2,1.5812346E3,9.08642E1,3.437037E1,1.5802469E0,1.9753087E0,1.3491357E2,1.4994568E3,8.177778E1,3.0814816E1,6.0049385E1,3.1604939E1,2.7654321E0,1.3274074E2,2.1728396E0,1.4409877E3,5.8469135E1,2.6469135E1,5.5308643E1,2.9432098E1,1.3827161E0,5.8864197E1,1.1851852E0],"tree_param":{"num_deleted":"0","num_feature":"26","num_nodes":"27","size_leaf_vector":"1"}},{"base_weights":[-4.652256E-1,-5.5759203E-1,1.1140065E0,-5.61025E-1,2.2734027E-1,2.777217E0,-1.6550248E-2,-1.6865246E-2,-2.5408617E-1,4.5175098E-2,-1.4124748E-2,-2.9752067E-1,3.7678401E0,1.8305084E-2,-1.4506065E-2,-1.540366E-2,1.9045644E-2,1.17355615E-1,3.263736E-2],"categories":[],"categories_nodes":[],"categories_segments":[],"categories_sizes":[],"default_left":[0,0,0,0,0,0,0,0,0,0,0,0,0,0,0,0,0,0,0],"id":1,"left_children":[1,3,5,7,9,11,-1,-1,13,-1,-1,15,17,-1,-1,-1,-1,-1,-1],"loss_changes":[2.6988446E2,4.8286743E0,2.8503427E2,4.7027588E-1,8.125293E0,1.5759033E2,0E0,0E0,1.9426665E0,0E0,0E0,3.0327687E0,1.0767517E1,0E0,0E0,0E0,0E0,0E0,0E0],"parents":[2147483647,0,0,1,1,2,2,3,3,4,4,5,5,8,8,11,11,12,12],"right_children":[2,4,6,8,10,12,-1,-1,14,-1,-1,16,18,-1,-1,-1,-1,-1,-1],"split_conditions":[1.852591E2,1.838359E2,1.0416666E0,1.813328E2,1.0416666E0,1E0,-1.6550248E-2,-1.6865246E-2,4.8333335E0,4.5175098E-2,-1.4124748E-2,2E0,1.2149161E2,1.8305084E-2,-1.4506065E-2,-1.540366E-2,1.9045644E-2,1.17355615E-1,3.263736E-2],"split_indices":[1,1,9,1,9,9,0,0,9,0,0,14,3,0,0,0,0,0,0],"split_type":[0,0,0,0,0,0,0,0,0,0,0,0,0,0,0,0,0,0,0],"sum_hessian":[1.8449382E3,1.743605E3,1.01333336E2,1.7362963E3,7.308642E0,5.037037E1,5.0962963E1,1.7289877E3,7.308642E0,2.1728396E0,5.1358023E0,1.2444445E1,3.7925926E1,1.1851852E0,6.123457E0,1.0469136E1,1.9753087E0,3.5555557E1,2.3703704E0],"tree_param":{"num_deleted":"0","num_feature":"26","num_nodes":"19","size_leaf_vector":"1"}},{"base_weights":[-4.1592818E-1,9.8814005E-1,-1.6846983E-2,2.8316493E0,-1.669815E-2,-1.5966777E-2,3.7965662E0,1.23428576E-1,4.987261E-2],"categories":[],"categories_nodes":[],"categories_segments":[],"categories_sizes":[],"default_left":[0,0,0,0,0,0,0,0,0],"id":2,"left_children":[1,3,-1,5,-1,-1,7,-1,-1],"loss_changes":[3.7802258E2,4.9662784E2,0E0,2.5980603E2,0E0,0E0,3.5091248E1,0E0,0E0],"parents":[2147483647,0,0,1,1,3,3,6,6],"right_children":[2,4,-1,6,-1,-1,8,-1,-1],"split_conditions":[3.9354474E2,1.2083334E0,-1.6846983E-2,1E0,-1.669815E-2,-1.5966777E-2,1E0,1.23428576E-1,4.987261E-2],"split_indices":[2,11,0,11,0,0,18,0,0],"split_type":[0,0,0,0,0,0,0,0,0],"sum_hessian":[1.8449382E3,1.7283951E2,1.6720988E3,7.8419754E1,9.4419754E1,1.7580248E1,6.0839508E1,5.2148148E1,8.691359E0],"tree_param":{"num_deleted":"0","num_feature":"26","num_nodes":"9","size_leaf_vector":"1"}},{"base_weights":[-4.9610424E-1,-5.604831E-1,9.208148E-1,-1.6865406E-2,-1.3372956E-1,2.762101E0,-1.6505275E-2,1.9045644E-2,-1.4210526E-2,-1.4979196E-2,3.6981962E0,2.6264591E-2,1.1703862E-1],"categories":[],"categories_nodes":[],"categories_segments":[],"categories_sizes":[],"default_left":[0,0,0,0,0,0,0,0,0,0,0,0,0],"id":3,"left_children":[1,3,5,-1,7,9,-1,-1,-1,-1,11,-1,-1],"loss_changes":[1.6890198E2,1.2040405E0,2.1983928E2,0E0,2.4716341E0,1.1164102E2,0E0,0E0,0E0,0E0,1.2671387E1,0E0,0E0],"parents":[2147483647,0,0,1,1,2,2,4,4,5,5,10,10],"right_children":[2,4,6,-1,8,10,-1,-1,-1,-1,12,-1,-1],"split_conditions":[1.2149161E2,1.19165146E2,1.25E0,-1.6865406E-2,1.6750053E2,2.5E-1,-1.6505275E-2,1.9045644E-2,-1.4210526E-2,-1.4979196E-2,3.7085626E2,2.6264591E-2,1.1703862E-1],"split_indices":[3,3,12,0,1,12,0,0,0,0,2,0,0],"split_type":[0,0,0,0,0,0,0,0,0,0,0,0,0],"sum_hessian":[1.8449382E3,1.7653334E3,7.960494E1,1.7580247E3,7.308642E0,3.4962963E1,4.4641975E1,1.9753087E0,5.3333335E0,7.9012346E0,2.706173E1,2.1728396E0,2.488889E1],"tree_param":{"num_deleted":"0","num_feature":"26","num_nodes":"13","size_leaf_vector":"1"}},{"base_weights":[-4.6035004E-1,-1.6865283E-2,1.1480569E0,2.2446241E0,-1.6492015E-2,-4.7563487E-1,3.1749077E0,-1.5870683E-2,4.576271E-3,-1.4124748E-2,1.0802959E-1],"categories":[],"categories_nodes":[],"categories_segments":[],"categories_sizes":[],"default_left":[0,0,0,0,0,0,0,0,0,0,0],"id":4,"left_children":[1,-1,3,5,-1,7,9,-1,-1,-1,-1],"loss_changes":[3.0296896E2,0E0,2.0646227E2,1.714985E2,0E0,6.839514E-1,7.965155E1,0E0,0E0,0E0,0E0],"parents":[2147483647,0,0,2,2,3,3,5,5,6,6],"right_children":[2,-1,4,6,-1,8,10,-1,-1,-1,-1],"split_conditions":[1E0,-1.6865283E-2,1.75E0,1E0,-1.6492015E-2,9E1,4.1321953E1,-1.5870683E-2,4.576271E-3,-1.4124748E-2,1.0802959E-1],"split_indices":[18,0,13,13,0,0,4,0,0,0,0],"split_type":[0,0,0,0,0,0,0,0,0,0,0],"sum_hessian":[1.8449382E3,1.7357037E3,1.09234566E2,6.617284E1,4.306173E1,1.6987654E1,4.9185184E1,1.5802469E1,1.1851852E0,5.1358023E0,4.404938E1],"tree_param":{"num_deleted":"0","num_feature":"26","num_nodes":"11","size_leaf_vector":"1"}},{"base_weights":[-4.7822714E-1,-5.461281E-1,6.840391E-1,-1.6864618E-2,-3.2508978E-1,-2.2192961E-1,1.5733365E0,-4.9300563E-1,2.769867E-1,7.4380165E-1,-1.6443674E-2,-1.6294092E-2,4.099427E0,1.9081272E-3,-1.6676355E-2,-1.7647059E-3,2.3291714E-2,5.164241E-2,-7.837445E-4,3.2033898E-2,1.263452E-1],"categories":[],"categories_nodes":[],"categories_segments":[],"categories_sizes":[],"default_left":[0,0,0,0,0,0,0,0,0,0,0,0,0,0,0,0,0,0,0,0,0],"id":5,"left_children":[1,3,5,-1,7,9,11,13,15,17,-1,-1,19,-1,-1,-1,-1,-1,-1,-1,-1],"loss_changes":[1.4605313E2,5.9972534E0,8.279663E1,0E0,1.2299539E1,1.6652336E1,2.789854E2,3.3400707E0,4.5529976E0,1.0164463E1,0E0,0E0,3.5613098E0,0E0,0E0,0E0,0E0,0E0,0E0,0E0,0E0],"parents":[2147483647,0,0,1,1,2,2,4,4,5,5,6,6,7,7,8,8,9,9,12,12],"right_children":[2,4,6,-1,8,10,12,14,16,18,-1,-1,20,-1,-1,-1,-1,-1,-1,-1,-1],"split_conditions":[1.852591E2,1E0,1.2083334E0,-1.6864618E-2,2.2916667E0,1E0,1E0,1.6666667E-1,4.5E1,8.333333E-1,-1.6443674E-2,-1.6294092E-2,2.2916667E0,1.9081272E-3,-1.6676355E-2,-1.7647059E-3,2.3291714E-2,5.164241E-2,-7.837445E-4,3.2033898E-2,1.263452E-1],"split_indices":[1,14,9,0,9,9,14,9,7,12,0,0,9,0,0,0,0,0,0,0,0],"split_type":[0,0,0,0,0,0,0,0,0,0,0,0,0,0,0,0,0,0,0,0,0],"sum_hessian":[1.8449382E3,1.743605E3,1.01333336E2,1.6242963E3,1.1930864E2,5.05679E1,5.0765434E1,9.34321E1,2.5876543E1,1.2444445E1,3.812346E1,2.8049383E1,2.271605E1,9.481482E0,8.3950615E1,1.6E1,9.876543E0,4.9382715E0,7.506173E0,1.1851852E0,2.1530865E1],"tree_param":{"num_deleted":"0","num_feature":"26","num_nodes":"21","size_leaf_vector":"1"}},{"base_weights":[-3.4387812E-1,1.505859E0,-5.358653E-1,3.8420396E0,5.7395923E-1,-5.512314E-1,-3.2400385E-1,-1.3170731E-2,4.183679E0,-1.660124E-2,1.6374547E0,-1.6863601E-2,-3.4025934E-1,-4.6868658E-1,2.1083455E-1,1.2960319E-1,6.798561E-2,-1.6369686E-2,1.1509714E-1,-1.521564E-2,1.1098814E-2,-1.4689598E-2,1.8305084E-2,4.3548387E-2,-4.3783784E-3],"categories":[],"categories_nodes":[],"categories_segments":[],"categories_sizes":[],"default_left":[0,0,0,0,0,0,0,0,0,0,0,0,0,0,0,0,0,0,0,0,0,0,0,0,0],"id":6,"left_children":[1,3,5,7,9,11,13,-1,15,-1,17,-1,19,21,23,-1,-1,-1,-1,-1,-1,-1,-1,-1,-1],"loss_changes":[6.563472E2,3.7625836E2,5.268158E0,7.408093E1,1.5130331E2,3.3889465E0,9.041678E0,0E0,2.201477E0,0E0,3.1320465E2,0E0,9.556497E0,2.3633385E0,1.1410161E1,0E0,0E0,0E0,0E0,0E0,0E0,0E0,0E0,0E0,0E0],"parents":[2147483647,0,0,1,1,2,2,3,3,4,4,5,5,6,6,8,8,10,10,12,12,13,13,14,14],"right_children":[2,4,6,8,10,12,14,-1,16,-1,18,-1,20,22,24,-1,-1,-1,-1,-1,-1,-1,-1,-1,-1],"split_conditions":[3.9354474E2,5.833333E-1,1E0,1E0,1.0416666E0,1E0,7.9166665E0,-1.3170731E-2,1E0,-1.660124E-2,1E0,-1.6863601E-2,9E0,2E0,1.6746405E2,1.2960319E-1,6.798561E-2,-1.6369686E-2,1.1509714E-1,-1.521564E-2,1.1098814E-2,-1.4689598E-2,1.8305084E-2,4.3548387E-2,-4.3783784E-3],"split_indices":[2,10,15,15,10,16,10,0,18,0,16,0,11,16,1,0,0,0,0,0,0,0,0,0,0],"split_type":[0,0,0,0,0,0,0,0,0,0,0,0,0,0,0,0,0,0,0,0,0,0,0,0,0],"sum_hessian":[1.8449382E3,1.7283951E2,1.6720988E3,4.839506E1,1.2444444E2,1.5575309E3,1.145679E2,3.5555556E0,4.4839508E1,6.0641975E1,6.380247E1,1.4795062E3,7.802469E1,9.027161E1,2.4296297E1,4.0691357E1,4.148148E0,3.239506E1,3.1407408E1,6.340741E1,1.4617284E1,8.908642E1,1.1851852E0,4.740741E0,1.9555555E1],"tree_param":{"num_deleted":"0","num_feature":"26","num_nodes":"25","size_leaf_vector":"1"}},{"base_weights":[-5.0531363E-1,-5.5535823E-1,5.0175536E-1,-5.564851E-1,8.411215E-2,-5.208813E-1,1.2393656E0,-1.6864838E-2,-4.529389E-1,1.8305084E-2,-1.08E-2,-1.6395226E-2,-9.89011E-2,-1.5396059E-1,3.5872505E0,-1.6247313E-2,-4.2531234E-3,4.576271E-3,-9.152542E-3,7.37092E-2,-1.5314426E-2,2.3736263E-2,1.180382E-1],"categories":[],"categories_nodes":[],"categories_segments":[],"categories_sizes":[],"default_left":[0,0,0,0,0,0,0,0,0,0,0,0,0,0,0,0,0,0,0,0,0,0,0],"id":7,"left_children":[1,3,5,7,9,11,13,-1,15,-1,-1,-1,17,19,21,-1,-1,-1,-1,-1,-1,-1,-1],"loss_changes":[9.3310974E1,1.314331E0,6.695942E1,7.774658E-1,1.145522E0,3.5193253E-1,1.6860374E2,0E0,2.5822678E0,0E0,0E0,0E0,2.2127026E-1,3.215619E1,1.5508026E1,0E0,0E0,0E0,0E0,0E0,0E0,0E0,0E0],"parents":[2147483647,0,0,1,1,2,2,3,3,4,4,5,5,6,6,8,8,12,12,13,13,14,14],"right_children":[2,4,6,8,10,12,14,-1,16,-1,-1,-1,18,20,22,-1,-1,-1,-1,-1,-1,-1,-1],"split_conditions":[1.19165146E2,2E0,1E0,1E0,5.9583335E0,1.28E2,2.375E0,-1.6864838E-2,2.375E0,1.8305084E-2,-1.08E-2,-1.6395226E-2,7.4E1,2.5E-1,3.8756802E2,-1.6247313E-2,-4.2531234E-3,4.576271E-3,-9.152542E-3,7.37092E-2,-1.5314426E-2,2.3736263E-2,1.180382E-1],"split_indices":[3,17,17,17,9,5,12,0,12,0,0,0,0,12,2,0,0,0,0,0,0,0,0],"split_type":[0,0,0,0,0,0,0,0,0,0,0,0,0,0,0,0,0,0,0,0,0,0,0],"sum_hessian":[1.8449382E3,1.7580247E3,8.691358E1,1.7550618E3,2.962963E0,3.654321E1,5.037037E1,1.6596543E3,9.540741E1,1.1851852E0,1.7777778E0,3.417284E1,2.3703704E0,3.2197533E1,1.817284E1,7.3679016E1,2.1728395E1,1.1851852E0,1.1851852E0,3.1604939E0,2.9037037E1,2.3703704E0,1.5802469E1],"tree_param":{"num_deleted":"0","num_feature":"26","num_nodes":"23","size_leaf_vector":"1"}},{"base_weights":[-4.923121E-1,-1.6865283E-2,6.128346E-1,-2.2222222E-1,2.8297265E0,1.1630529E0,-5.0992894E-1,-3.3027522E-2,3.500252E0,-1.0951638E-2,7.967959E-2,-1.6121801E-2,-5.1039695E-3,-1.3466334E-2,2.16E-2,3.832258E-2,1.1906309E-1],"categories":[],"categories_nodes":[],"categories_segments":[],"categories_sizes":[],"default_left":[0,0,0,0,0,0,0,0,0,0,0,0,0,0,0,0,0],"id":8,"left_children":[1,-1,3,5,7,9,11,13,15,-1,-1,-1,-1,-1,-1,-1,-1],"loss_changes":[1.4286935E2,0E0,2.0469846E2,3.2875866E1,5.815233E1,3.34438E1,5.409794E-1,2.4301667E0,2.0451813E1,0E0,0E0,0E0,0E0,0E0,0E0,0E0,0E0],"parents":[2147483647,0,0,2,2,3,3,4,4,5,5,6,6,7,7,8,8],"right_children":[2,-1,4,6,8,10,12,14,16,-1,-1,-1,-1,-1,-1,-1,-1],"split_conditions":[1E0,-1.6865283E-2,4E0,5E-1,4.1255783E1,4.2902042E1,5.1191185E1,8E0,3.786439E2,-1.0951638E-2,7.967959E-2,-1.6121801E-2,-5.1039695E-3,-1.3466334E-2,2.16E-2,3.832258E-2,1.1906309E-1],"split_indices":[18,0,13,13,4,4,4,23,2,0,0,0,0,0,0,0,0],"split_type":[0,0,0,0,0,0,0,0,0,0,0,0,0,0,0,0,0],"sum_hessian":[1.8449382E3,1.7357037E3,1.09234566E2,8E1,2.9234568E1,1.3234568E1,6.6765434E1,5.728395E0,2.3506172E1,6.9135804E0,6.3209877E0,6.123457E1,5.5308642E0,3.9506173E0,1.7777778E0,4.740741E0,1.8765432E1],"tree_param":{"num_deleted":"0","num_feature":"26","num_nodes":"17","size_leaf_vector":"1"}},{"base_weights":[3.267403E0,2.669071E-1,3.523866E0,3.2612565E0,-4.9505726E-1,3.6580946E0,9.6444374E-1,3.402884E0,2.4413352E-3,6.762307E-2,-5.4902786E-1,3.7867022E0,1.075827E0,3.4650626E0,-5.025178E-1,1.0658467E-1,2.7769294E-3,-7.248647E-3,-1.6702188E-2,1.1622558E-1,4.3838445E-2,1.0969481E-1,-1.066057E-2,1.0804334E-1,2.7414684E-3,-1.554539E-2,4.5073326E-3],"categories":[],"categories_nodes":[],"categories_segments":[],"categories_sizes":[],"default_left":[0,0,0,0,0,0,0,0,0,0,0,0,0,0,0,0,0,0,0,0,0,0,0,0,0,0,0],"id":9,"left_children":[1,3,5,7,9,11,13,15,-1,-1,17,19,21,23,25,-1,-1,-1,-1,-1,-1,-1,-1,-1,-1,-1,-1],"loss_changes":[1.560709E3,3.6868234E2,6.387383E2,1.4479858E1,2.0394999E1,5.8573047E2,3.4846487E2,1.5229065E1,0E0,0E0,1.6757965E-1,3.3841992E2,3.17647E2,1.5808655E1,6.958084E-1,0E0,0E0,0E0,0E0,0E0,0E0,0E0,0E0,0E0,0E0,0E0,0E0],"parents":[2147483647,0,0,1,1,2,2,3,3,4,4,5,5,6,6,7,7,10,10,11,11,12,12,13,13,14,14],"right_children":[2,4,6,8,10,12,14,16,-1,-1,18,20,22,24,26,-1,-1,-1,-1,-1,-1,-1,-1,-1,-1,-1,-1],"split_conditions":[3.8509454E2,1E0,1E0,1.2379192E2,1E0,1.852591E2,4.2902042E1,1.9010712E2,2.4413352E-3,6.762307E-2,2E0,1.2149161E2,1E0,1.1492877E2,1.04583336E2,1.0658467E-1,2.7769294E-3,-7.248647E-3,-1.6702188E-2,1.1622558E-1,4.3838445E-2,1.0969481E-1,-1.066057E-2,1.0804334E-1,2.7414684E-3,-1.554539E-2,4.5073326E-3],"split_indices":[2,16,18,3,15,1,4,1,0,0,8,3,14,3,10,0,0,0,0,0,0,0,0,0,0,0,0],"split_type":[0,0,0,0,0,0,0,0,0,0,0,0,0,0,0,0,0,0,0,0,0,0,0,0,0,0,0],"sum_hessian":[2.0283928E3,1.5988266E2,1.8685103E3,3.1766674E1,1.2811598E2,1.7749917E3,9.351858E1,3.0345015E1,1.4216582E0,1.6818215E0,1.2643416E2,1.6903395E3,8.4652214E1,3.4073677E1,5.94449E1,2.8960037E1,1.3849782E0,3.8854156E0,1.22548744E2,1.6284115E3,6.1927902E1,2.9644005E1,5.5008205E1,3.2684868E1,1.388811E0,5.825339E1,1.1915079E0],"tree_param":{"num_deleted":"0","num_feature":"26","num_nodes":"27","size_leaf_vector":"1"}},{"base_weights":[-4.6293923E-1,-5.5976635E-1,1.0128218E0,-1.6827969E-2,-2.5074565E-1,2.531194E0,-1.6539628E-2,1.806666E-2,-1.4448819E-2,-3.0300483E-1,3.3497329E0,-1.54129295E-2,1.8561086E-2,4.2862464E-2,1.0556931E-1],"categories":[],"categories_nodes":[],"categories_segments":[],"categories_sizes":[],"default_left":[0,0,0,0,0,0,0,0,0,0,0,0,0,0,0],"id":10,"left_children":[1,3,5,-1,7,9,-1,-1,-1,11,13,-1,-1,-1,-1],"loss_changes":[2.609177E2,4.7564697E-1,2.686704E2,0E0,1.9122946E0,1.3390811E2,0E0,0E0,0E0,2.9896536E0,9.449738E0,0E0,0E0,0E0,0E0],"parents":[2147483647,0,0,1,1,2,2,4,4,5,5,9,9,10,10],"right_children":[2,4,6,-1,8,10,-1,-1,-1,12,14,-1,-1,-1,-1],"split_conditions":[1.838359E2,1.813328E2,1.0416666E0,-1.6827969E-2,4.8333335E0,1E0,-1.6539628E-2,1.806666E-2,-1.4448819E-2,2E0,3.8208234E2,-1.54129295E-2,1.8561086E-2,4.2862464E-2,1.0556931E-1],"split_indices":[1,1,9,0,9,9,0,0,0,14,2,0,0,0,0],"split_type":[0,0,0,0,0,0,0,0,0,0,0,0,0,0,0],"sum_hessian":[1.8209895E3,1.7094503E3,1.11539154E2,1.7022129E3,7.237497E0,5.6283947E1,5.5255203E1,1.1991196E0,6.0383773E0,1.2753759E1,4.3530186E1,1.0740427E1,2.0133317E0,4.2891164E0,3.924107E1],"tree_param":{"num_deleted":"0","num_feature":"26","num_nodes":"15","size_leaf_vector":"1"}},{"base_weights":[-4.1332662E-1,9.4663084E-1,-1.6809372E-2,2.5906441E0,-1.6660215E-2,-1.5921233E-2,3.3938048E0,1.09333314E-1,4.7495943E-2],"categories":[],"categories_nodes":[],"categories_segments":[],"categories_sizes":[],"default_left":[0,0,0,0,0,0,0,0,0],"id":11,"left_children":[1,3,-1,5,-1,-1,7,-1,-1],"loss_changes":[3.652389E2,4.4178772E2,0E0,2.1568579E2,0E0,0E0,2.5085388E1,0E0,0E0],"parents":[2147483647,0,0,1,1,3,3,6,6],"right_children":[2,4,-1,6,-1,-1,8,-1,-1],"split_conditions":[3.9354474E2,1.2083334E0,-1.6809372E-2,1E0,-1.6660215E-2,-1.5921233E-2,1E0,1.09333314E-1,4.7495943E-2],"split_indices":[2,11,0,11,0,0,18,0,0],"split_type":[0,0,0,0,0,0,0,0,0],"sum_hessian":[1.823505E3,1.773323E2,1.6461727E3,8.43168E1,9.30155E1,1.7325052E1,6.699175E1,5.7956146E1,9.035608E0],"tree_param":{"num_deleted":"0","num_feature":"26","num_nodes":"9","size_leaf_vector":"1"}},{"base_weights":[-4.9409285E-1,-5.59214E-1,8.8471293E-1,-1.6828053E-2,-1.3029827E-1,2.543808E0,-1.6470859E-2,1.8721797E-2,-1.4145245E-2,-1.49401445E-2,3.337552E0,2.5635725E-2,1.0504283E-1],"categories":[],"categories_nodes":[],"categories_segments":[],"categories_sizes":[],"default_left":[0,0,0,0,0,0,0,0,0,0,0,0,0],"id":12,"left_children":[1,3,5,-1,7,9,-1,-1,-1,-1,11,-1,-1],"loss_changes":[1.6395544E2,1.2106934E0,1.9762009E2,0E0,2.4184387E0,9.4419174E1,0E0,0E0,0E0,0E0,9.458282E0,0E0,0E0],"parents":[2147483647,0,0,1,1,2,2,4,4,5,5,10,10],"right_children":[2,4,6,-1,8,10,-1,-1,-1,-1,12,-1,-1],"split_conditions":[1.2149161E2,1.19165146E2,1.25E0,-1.6828053E-2,1.6750053E2,2.5E-1,-1.6470859E-2,1.8721797E-2,-1.4145245E-2,-1.49401445E-2,3.7085626E2,2.5635725E-2,1.0504283E-1],"split_indices":[3,3,12,0,1,12,0,0,0,0,2,0,0],"split_type":[0,0,0,0,0,0,0,0,0,0,0,0,0],"sum_hessian":[1.819489E3,1.7379976E3,8.149142E1,1.730745E3,7.25266E0,3.7417934E1,4.4073483E1,2.0006325E0,5.252027E0,7.8205075E0,2.9597425E1,2.2171915E0,2.7380236E1],"tree_param":{"num_deleted":"0","num_feature":"26","num_nodes":"13","size_leaf_vector":"1"}},{"base_weights":[-4.5803472E-1,-1.6827907E-2,1.0950147E0,2.0826802E0,-1.6451774E-2,-4.7372934E-1,2.8805912E0,-1.5830183E-2,4.6305223E-3,-1.4072264E-2,9.704677E-2],"categories":[],"categories_nodes":[],"categories_segments":[],"categories_sizes":[],"default_left":[0,0,0,0,0,0,0,0,0,0,0],"id":13,"left_children":[1,-1,3,5,-1,7,9,-1,-1,-1,-1],"loss_changes":[2.918252E2,0E0,1.8548611E2,1.4649063E2,0E0,6.8395066E-1,6.603677E1,0E0,0E0,0E0,0E0],"parents":[2147483647,0,0,2,2,3,3,5,5,6,6],"right_children":[2,-1,4,6,-1,8,10,-1,-1,-1,-1],"split_conditions":[1E0,-1.6827907E-2,1.75E0,1E0,-1.6451774E-2,8.775E1,4.1321953E1,-1.5830183E-2,4.6305223E-3,-1.4072264E-2,9.704677E-2],"split_indices":[18,0,13,13,0,10,4,0,0,0,0],"split_type":[0,0,0,0,0,0,0,0,0,0,0],"sum_hessian":[1.821326E3,1.7087534E3,1.12572685E2,7.014762E1,4.2425064E1,1.6783052E1,5.3364567E1,1.5602846E1,1.1802061E0,5.0735745E0,4.8290993E1],"tree_param":{"num_deleted":"0","num_feature":"26","num_nodes":"11","size_leaf_vector":"1"}},{"base_weights":[-4.760428E-1,-5.446729E-1,6.624311E-1,-1.682739E-2,-3.2194567E-1,-2.1860577E-1,1.4872234E0,-4.909576E-1,2.7354208E-1,7.20312E-1,-1.639733E-2,-1.6253179E-2,3.6499484E0,1.9225077E-3,-1.6637184E-2,-1.7034913E-3,2.2674E-2,4.903207E-2,-7.934572E-4,3.0998632E-2,1.1212488E-1],"categories":[],"categories_nodes":[],"categories_segments":[],"categories_sizes":[],"default_left":[0,0,0,0,0,0,0,0,0,0,0,0,0,0,0,0,0,0,0,0,0],"id":14,"left_children":[1,3,5,-1,7,9,11,13,15,17,-1,-1,19,-1,-1,-1,-1,-1,-1,-1,-1],"loss_changes":[1.4266605E2,6.0347595E0,7.590048E1,0E0,1.2123329E1,1.6147312E1,2.3825232E2,3.3244133E0,4.3404408E0,9.378054E0,0E0,0E0,2.1383057E0,0E0,0E0,0E0,0E0,0E0,0E0,0E0,0E0],"parents":[2147483647,0,0,1,1,2,2,4,4,5,5,6,6,7,7,8,8,9,9,12,12],"right_children":[2,4,6,-1,8,10,12,14,16,18,-1,-1,20,-1,-1,-1,-1,-1,-1,-1,-1],"split_conditions":[1.852591E2,1E0,1.2083334E0,-1.682739E-2,2.2916667E0,1E0,1E0,1.6666667E-1,4.5E1,8.333333E-1,-1.639733E-2,-1.6253179E-2,2.2916667E0,1.9225077E-3,-1.6637184E-2,-1.7034913E-3,2.2674E-2,4.903207E-2,-7.934572E-4,3.0998632E-2,1.1212488E-1],"split_indices":[1,14,9,0,9,9,14,9,7,12,0,0,9,0,0,0,0,0,0,0,0],"split_type":[0,0,0,0,0,0,0,0,0,0,0,0,0,0,0,0,0,0,0,0,0],"sum_hessian":[1.8203077E3,1.7173058E3,1.03001976E2,1.5991832E3,1.18122536E2,5.015826E1,5.284372E1,9.21453E1,2.597723E1,1.2675263E1,3.7482994E1,2.7651503E1,2.5192217E1,9.474367E0,8.267094E1,1.594077E1,1.003646E1,5.1646686E0,7.5105953E0,1.2300665E0,2.3962149E1],"tree_param":{"num_deleted":"0","num_feature":"26","num_nodes":"21","size_leaf_vector":"1"}},{"base_weights":[-3.410135E-1,1.4239309E0,-5.342781E-1,3.4287882E0,5.5602545E-1,-5.4984385E-1,-3.2076314E-1,-1.311831E-2,3.704607E0,-1.6559089E-2,1.5419575E0,-1.6826376E-2,-3.37176E-1,-4.663626E-1,2.0940034E-1,1.1423477E-1,6.390598E-2,-1.6329853E-2,1.0274117E-1,-1.5159198E-2,1.0926454E-2,-1.4626777E-2,1.8062005E-2,4.1920096E-2,-4.2978427E-3],"categories":[],"categories_nodes":[],"categories_segments":[],"categories_sizes":[],"default_left":[0,0,0,0,0,0,0,0,0,0,0,0,0,0,0,0,0,0,0,0,0,0,0,0,0],"id":15,"left_children":[1,3,5,7,9,11,13,-1,15,-1,17,-1,19,21,23,-1,-1,-1,-1,-1,-1,-1,-1,-1,-1],"loss_changes":[6.2427435E2,3.124831E2,5.301697E0,5.962091E1,1.3990149E2,3.4129944E0,8.928184E0,0E0,1.5637207E-1,0E0,2.6746295E2,0E0,9.408512E0,2.333128E0,1.081535E1,0E0,0E0,0E0,0E0,0E0,0E0,0E0,0E0,0E0,0E0],"parents":[2147483647,0,0,1,1,2,2,3,3,4,4,5,5,6,6,8,8,10,10,12,12,13,13,14,14],"right_children":[2,4,6,8,10,12,14,-1,16,-1,18,-1,20,22,24,-1,-1,-1,-1,-1,-1,-1,-1,-1,-1],"split_conditions":[3.9354474E2,5.833333E-1,1E0,1E0,1.0416666E0,1E0,7.9166665E0,-1.311831E-2,1E0,-1.6559089E-2,1E0,-1.6826376E-2,9E0,2E0,1.6746405E2,1.1423477E-1,6.390598E-2,-1.6329853E-2,1.0274117E-1,-1.5159198E-2,1.0926454E-2,-1.4626777E-2,1.8062005E-2,4.1920096E-2,-4.2978427E-3],"split_indices":[2,10,15,15,10,16,10,0,18,0,16,0,11,16,1,0,0,0,0,0,0,0,0,0,0],"split_type":[0,0,0,0,0,0,0,0,0,0,0,0,0,0,0,0,0,0,0,0,0,0,0,0,0],"sum_hessian":[1.8269429E3,1.7968088E2,1.647262E3,5.3392902E1,1.2628797E2,1.5338644E3,1.13397644E2,3.516589E0,4.9876312E1,5.9670334E1,6.661764E1,1.4566414E3,7.7223E1,8.905947E1,2.4338171E1,4.5476295E1,4.400017E0,3.1937912E1,3.467973E1,6.251668E1,1.4706322E1,8.786008E1,1.1993932E0,4.893209E0,1.9444962E1],"tree_param":{"num_deleted":"0","num_feature":"26","num_nodes":"25","size_leaf_vector":"1"}},{"base_weights":[-5.033862E-1,-5.5402184E-1,4.8883316E-1,-5.551642E-1,8.50502E-2,-5.198969E-1,1.192892E0,-1.6827516E-2,-4.5051426E-1,1.8211648E-2,-1.0767764E-2,-1.6369723E-2,-1.0016123E-1,-1.4899386E-1,3.2552373E0,-1.6202483E-2,-4.172109E-3,-9.172501E-3,4.537943E-3,6.938524E-2,-1.524265E-2,2.3179593E-2,1.06176525E-1],"categories":[],"categories_nodes":[],"categories_segments":[],"categories_sizes":[],"default_left":[0,0,0,0,0,0,0,0,0,0,0,0,0,0,0,0,0,0,0,0,0,0,0],"id":16,"left_children":[1,3,5,7,9,11,13,-1,15,-1,-1,-1,17,19,21,-1,-1,-1,-1,-1,-1,-1,-1],"loss_changes":[9.170914E1,1.3117065E0,6.375711E1,7.883301E-1,1.135137E0,3.4800243E-1,1.4621814E2,0E0,2.5800648E0,0E0,0E0,0E0,2.2086848E-1,3.022321E1,1.1930496E1,0E0,0E0,0E0,0E0,0E0,0E0,0E0,0E0],"parents":[2147483647,0,0,1,1,2,2,3,3,4,4,5,5,6,6,8,8,12,12,13,13,14,14],"right_children":[2,4,6,8,10,12,14,-1,16,-1,-1,-1,18,20,22,-1,-1,-1,-1,-1,-1,-1,-1],"split_conditions":[1.19165146E2,2E0,1E0,1E0,1.7833334E1,1.28E2,2.375E0,-1.6827516E-2,2.375E0,1.8211648E-2,-1.0767764E-2,-1.6369723E-2,3.9701874E1,2.5E-1,3.8756802E2,-1.6202483E-2,-4.172109E-3,-9.172501E-3,4.537943E-3,6.938524E-2,-1.524265E-2,2.3179593E-2,1.06176525E-1],"split_indices":[3,17,17,17,13,5,12,0,12,0,0,0,4,12,2,0,0,0,0,0,0,0,0],"split_type":[0,0,0,0,0,0,0,0,0,0,0,0,0,0,0,0,0,0,0,0,0,0,0],"sum_hessian":[1.8189679E3,1.7310684E3,8.789955E1,1.7281106E3,2.9577997E0,3.6239502E1,5.166005E1,1.6339279E3,9.418269E1,1.1906161E0,1.7671835E0,3.386132E1,2.3781781E0,3.1858652E1,1.9801397E1,7.257627E1,2.160642E1,1.1894838E0,1.1886944E0,3.3629053E0,2.8495747E1,2.414488E0,1.738691E1],"tree_param":{"num_deleted":"0","num_feature":"26","num_nodes":"23","size_leaf_vector":"1"}},{"base_weights":[-4.902569E-1,-1.6827907E-2,5.9455955E-1,-2.1940465E-1,2.5978713E0,1.1141257E0,-5.0807106E-1,-3.099163E-2,3.161152E0,-1.0877789E-2,7.376607E-2,-1.607546E-2,-5.0319615E-3,-1.3405524E-2,2.1177256E-2,3.679482E-2,1.0619044E-1],"categories":[],"categories_nodes":[],"categories_segments":[],"categories_sizes":[],"default_left":[0,0,0,0,0,0,0,0,0,0,0,0,0,0,0,0,0],"id":17,"left_children":[1,-1,3,5,7,9,11,13,15,-1,-1,-1,-1,-1,-1,-1,-1],"loss_changes":[1.3991394E2,0E0,1.8293658E2,3.153429E1,4.8060852E1,2.9941582E1,5.418205E-1,2.3704064E0,1.5200226E1,0E0,0E0,0E0,0E0,0E0,0E0,0E0,0E0],"parents":[2147483647,0,0,2,2,3,3,4,4,5,5,6,6,7,7,8,8],"right_children":[2,-1,4,6,8,10,12,14,16,-1,-1,-1,-1,-1,-1,-1,-1],"split_conditions":[1E0,-1.6827907E-2,4E0,5E-1,4.1255783E1,4.2902042E1,5.1191185E1,8E0,3.786439E2,-1.0877789E-2,7.376607E-2,-1.607546E-2,-5.0319615E-3,-1.3405524E-2,2.1177256E-2,3.679482E-2,1.0619044E-1],"split_indices":[18,0,13,13,4,4,4,23,2,0,0,0,0,0,0,0,0],"split_type":[0,0,0,0,0,0,0,0,0,0,0,0,0,0,0,0,0],"sum_hessian":[1.8195919E3,1.7087534E3,1.10838524E2,7.944839E1,3.1390139E1,1.3628816E1,6.581957E1,5.7058024E0,2.5684336E1,6.8437605E0,6.785055E0,6.03218E1,5.4977727E0,3.8990412E0,1.8067613E0,4.8968377E0,2.0787498E1],"tree_param":{"num_deleted":"0","num_feature":"26","num_nodes":"17","size_leaf_vector":"1"}},{"base_weights":[2.9553597E0,3.9391086E-1,3.1786246E0,3.036459E0,-4.7487354E-1,3.2896032E0,9.279669E-1,3.1476214E0,1.2030083E-3,7.157335E-2,-5.4116464E-1,3.395325E0,1.025227E0,3.1271753E0,-5.0047886E-1,9.758511E-2,2.330347E-3,-1.645515E-2,-1.9388616E-3,1.03949726E-1,4.2411212E-2,9.846334E-2,-1.0557372E-2,9.7195275E-2,2.6911935E-3,-1.5490661E-2,4.4406885E-3],"categories":[],"categories_nodes":[],"categories_segments":[],"categories_sizes":[],"default_left":[0,0,0,0,0,0,0,0,0,0,0,0,0,0,0,0,0,0,0,0,0,0,0,0,0,0,0],"id":18,"left_children":[1,3,5,7,9,11,13,15,-1,-1,17,19,21,23,25,-1,-1,-1,-1,-1,-1,-1,-1,-1,-1,-1,-1],"loss_changes":[1.2588242E3,4.0963202E2,5.0313672E2,1.4571625E1,2.682965E1,4.5877734E2,3.0511325E2,1.3486511E1,0E0,0E0,4.2780304E-1,2.4972656E2,2.7331393E2,1.2777588E1,6.884289E-1,0E0,0E0,0E0,0E0,0E0,0E0,0E0,0E0,0E0,0E0,0E0,0E0],"parents":[2147483647,0,0,1,1,2,2,3,3,4,4,5,5,6,6,7,7,10,10,11,11,12,12,13,13,14,14],"right_children":[2,4,6,8,10,12,14,16,-1,-1,18,20,22,24,26,-1,-1,-1,-1,-1,-1,-1,-1,-1,-1,-1,-1],"split_conditions":[3.9354474E2,1E0,1E0,1.9010712E2,1E0,1.852591E2,4.2902042E1,1.2379192E2,1.2030083E-3,7.157335E-2,2E0,1.2149161E2,1E0,1.1492877E2,1.04583336E2,9.758511E-2,2.330347E-3,-1.645515E-2,-1.9388616E-3,1.03949726E-1,4.2411212E-2,9.846334E-2,-1.0557372E-2,9.7195275E-2,2.6911935E-3,-1.5490661E-2,4.4406885E-3],"split_indices":[2,16,18,1,15,1,4,3,0,0,14,3,14,3,10,0,0,0,0,0,0,0,0,0,0,0,0],"split_type":[0,0,0,0,0,0,0,0,0,0,0,0,0,0,0,0,0,0,0,0,0,0,0,0,0,0,0],"sum_hessian":[2.202386E3,1.767983E2,2.0255876E3,4.3126625E1,1.3367166E2,1.9299608E3,9.562677E1,4.153522E1,1.591404E0,2.2350116E0,1.3143665E2,1.8433949E3,8.656596E1,3.718627E1,5.84405E1,4.0101257E1,1.4339621E0,1.2929404E2,2.1426208E0,1.780066E3,6.3328804E1,3.2280586E1,5.4285378E1,3.579203E1,1.3942418E0,5.7242863E1,1.1976378E0],"tree_param":{"num_deleted":"0","num_feature":"26","num_nodes":"27","size_leaf_vector":"1"}},{"base_weights":[-4.6068865E-1,-5.5852664E-1,9.72189E-1,-1.679127E-2,-2.4740806E-1,2.3412592E0,-1.6499635E-2,2.1329356E-2,-1.4463506E-2,-3.00504E-1,3.0403147E0,-1.5367182E-2,1.8077463E-2,9.411854E-2,2.3832934E-2],"categories":[],"categories_nodes":[],"categories_segments":[],"categories_sizes":[],"default_left":[0,0,0,0,0,0,0,0,0,0,0,0,0,0,0],"id":19,"left_children":[1,3,5,-1,7,9,-1,-1,-1,11,13,-1,-1,-1,-1],"loss_changes":[2.5261206E2,4.8083496E-1,2.4154877E2,0E0,2.1798556E0,1.1335773E2,0E0,0E0,0E0,2.9188805E0,8.012939E0,0E0,0E0,0E0,0E0],"parents":[2147483647,0,0,1,1,2,2,4,4,5,5,9,9,10,10],"right_children":[2,4,6,-1,8,10,-1,-1,-1,12,14,-1,-1,-1,-1],"split_conditions":[1.838359E2,1.813328E2,1.0416666E0,-1.679127E-2,4.2916665E0,1E0,-1.6499635E-2,2.1329356E-2,-1.4463506E-2,2E0,4.9559647E1,-1.5367182E-2,1.8077463E-2,9.411854E-2,2.3832934E-2],"split_indices":[1,1,9,0,9,9,0,0,0,14,4,0,0,0,0],"split_type":[0,0,0,0,0,0,0,0,0,0,0,0,0,0,0],"sum_hessian":[1.7970543E3,1.682764E3,1.1429024E2,1.6755972E3,7.1669154E0,5.9887955E1,5.4402287E1,1.0107057E0,6.15621E0,1.2650655E1,4.72373E1,1.05985365E1,2.0521178E0,4.490168E1,2.3356183E0],"tree_param":{"num_deleted":"0","num_feature":"26","num_nodes":"15","size_leaf_vector":"1"}},{"base_weights":[-4.107742E-1,9.092084E-1,-1.6772423E-2,2.3895586E0,-1.6621906E-2,-1.5874377E-2,3.0711303E0,9.823089E-2,4.533748E-2],"categories":[],"categories_nodes":[],"categories_segments":[],"categories_sizes":[],"default_left":[0,0,0,0,0,0,0,0,0],"id":20,"left_children":[1,3,-1,5,-1,-1,7,-1,-1],"loss_changes":[3.5345743E2,3.9662582E2,0E0,1.8246075E2,0E0,0E0,1.8460815E1,0E0,0E0],"parents":[2147483647,0,0,1,1,3,3,6,6],"right_children":[2,4,-1,6,-1,-1,8,-1,-1],"split_conditions":[3.9354474E2,1.2083334E0,-1.6772423E-2,1E0,-1.6621906E-2,-1.5874377E-2,1E0,9.823089E-2,4.533748E-2],"split_indices":[2,11,0,11,0,0,18,0,0],"split_type":[0,0,0,0,0,0,0,0,0],"sum_hessian":[1.8019485E3,1.814901E2,1.6204584E3,8.990389E1,9.1586205E1,1.706213E1,7.284177E1,6.347293E1,9.3688345E0],"tree_param":{"num_deleted":"0","num_feature":"26","num_nodes":"9","size_leaf_vector":"1"}},{"base_weights":[-4.9210697E-1,-5.579644E-1,8.5200936E-1,-1.6791303E-2,-1.2669314E-1,2.360152E0,-1.643656E-2,6.1360586E-1,-1.4077753E-2,-1.4901514E-2,3.045318E0,3.6144234E-2,-8.512539E-3,2.5010878E-2,9.542923E-2],"categories":[],"categories_nodes":[],"categories_segments":[],"categories_sizes":[],"default_left":[0,0,0,0,0,0,0,0,0,0,0,0,0,0,0],"id":21,"left_children":[1,3,5,-1,7,9,-1,11,-1,-1,13,-1,-1,-1,-1],"loss_changes":[1.5937604E2,1.2178955E0,1.7914583E2,0E0,2.3659341E0,8.126019E1,0E0,1.9469613E0,0E0,0E0,7.2488403E0,0E0,0E0,0E0,0E0],"parents":[2147483647,0,0,1,1,2,2,4,4,5,5,7,7,10,10],"right_children":[2,4,6,-1,8,10,-1,12,-1,-1,14,-1,-1,-1,-1],"split_conditions":[1.2149161E2,1.19165146E2,1.25E0,-1.6791303E-2,1.6750053E2,2.5E-1,-1.643656E-2,1.25E0,-1.4077753E-2,-1.4901514E-2,3.7085626E2,3.6144234E-2,-8.512539E-3,2.5010878E-2,9.542923E-2],"split_indices":[3,3,12,0,1,12,0,12,0,0,2,0,0,0,0],"split_type":[0,0,0,0,0,0,0,0,0,0,0,0,0,0,0],"sum_hessian":[1.7940824E3,1.7108416E3,8.324085E1,1.7036476E3,7.1939597E0,3.974095E1,4.3499897E1,2.0255172E0,5.1684422E0,7.7406335E0,3.2000317E1,1.0145123E0,1.0110048E0,2.262364E0,2.9737953E1],"tree_param":{"num_deleted":"0","num_feature":"26","num_nodes":"15","size_leaf_vector":"1"}},{"base_weights":[-4.5575497E-1,-1.6791115E-2,1.0467814E0,1.9428936E0,-1.6411992E-2,-4.7182217E-1,2.6369252E0,-1.57883E-2,4.5986036E-3,-1.4019486E-2,8.811798E-2],"categories":[],"categories_nodes":[],"categories_segments":[],"categories_sizes":[],"default_left":[0,0,0,0,0,0,0,0,0,0,0],"id":22,"left_children":[1,-1,3,5,-1,7,9,-1,-1,-1,-1],"loss_changes":[2.8151883E2,0E0,1.677908E2,1.2683957E2,0E0,6.7906857E-1,5.57865E1,0E0,0E0,0E0,0E0],"parents":[2147483647,0,0,2,2,3,3,5,5,6,6],"right_children":[2,-1,4,6,-1,8,10,-1,-1,-1,-1],"split_conditions":[1E0,-1.6791115E-2,1.75E0,1E0,-1.6411992E-2,9E1,4.1321953E1,-1.57883E-2,4.5986036E-3,-1.4019486E-2,8.811798E-2],"split_indices":[18,0,13,13,0,0,4,0,0,0,0],"split_type":[0,0,0,0,0,0,0,0,0,0,0],"sum_hessian":[1.7976965E3,1.681962E3,1.1573444E2,7.3942566E1,4.1791878E1,1.6579247E1,5.7363323E1,1.539616E1,1.1830857E0,5.0113535E0,5.2351967E1],"tree_param":{"num_deleted":"0","num_feature":"26","num_nodes":"11","size_leaf_vector":"1"}},{"base_weights":[-4.7388572E-1,-5.4323125E-1,6.422019E-1,-1.679074E-2,-3.1876925E-1,-2.153552E-1,1.4105496E0,-4.8890144E-1,2.703049E-1,6.9778305E-1,-1.6351864E-2,-1.6212227E-2,3.2912548E0,1.9353132E-3,-1.6598353E-2,-1.6392041E-3,2.2085132E-2,4.6637513E-2,-8.0424885E-4,2.9998133E-2,1.0085053E-1],"categories":[],"categories_nodes":[],"categories_segments":[],"categories_sizes":[],"default_left":[0,0,0,0,0,0,0,0,0,0,0,0,0,0,0,0,0,0,0,0,0],"id":23,"left_children":[1,3,5,-1,7,9,11,13,15,17,-1,-1,19,-1,-1,-1,-1,-1,-1,-1,-1],"loss_changes":[1.394068E2,6.073578E0,6.9859146E1,0E0,1.1951469E1,1.566039E1,2.0655418E2,3.3084316E0,4.1383867E0,8.672756E0,0E0,0E0,1.2470703E0,0E0,0E0,0E0,0E0,0E0,0E0,0E0,0E0],"parents":[2147483647,0,0,1,1,2,2,4,4,5,5,6,6,7,7,8,8,9,9,12,12],"right_children":[2,4,6,-1,8,10,12,14,16,18,-1,-1,20,-1,-1,-1,-1,-1,-1,-1,-1],"split_conditions":[1.852591E2,1E0,1.2083334E0,-1.679074E-2,2.2916667E0,1E0,1E0,1.6666667E-1,4.5E1,8.333333E-1,-1.6351864E-2,-1.6212227E-2,2.2916667E0,1.9353132E-3,-1.6598353E-2,-1.6392041E-3,2.2085132E-2,4.6637513E-2,-8.0424885E-4,2.9998133E-2,1.0085053E-1],"split_indices":[1,14,9,0,9,9,14,9,7,12,0,0,9,0,0,0,0,0,0,0,0],"split_type":[0,0,0,0,0,0,0,0,0,0,0,0,0,0,0,0,0,0,0,0,0],"sum_hessian":[1.7957145E3,1.691152E3,1.04562546E2,1.5742188E3,1.1693315E2,4.975284E1,5.4809704E1,9.086129E1,2.607186E1,1.2902476E1,3.6850365E1,2.725219E1,2.7557514E1,9.468029E0,8.1393265E1,1.5878916E1,1.0192945E1,5.3870444E0,7.515432E0,1.2750025E0,2.628251E1],"tree_param":{"num_deleted":"0","num_feature":"26","num_nodes":"21","size_leaf_vector":"1"}},{"base_weights":[-3.3820635E-1,1.3515111E0,-5.3270495E-1,3.0997758E0,5.3952944E-1,-5.484747E-1,-3.1751046E-1,-1.306629E-2,3.3285718E0,-1.6516756E-2,1.4576817E0,-1.6789809E-2,-3.340875E-1,-4.6403062E-1,2.0802651E-1,1.0076002E-1,3.1711332E-2,-1.6290676E-2,9.2869915E-2,-1.5102959E-2,1.0760563E-2,-1.4563825E-2,1.7824965E-2,4.040176E-2,-4.2168666E-3],"categories":[],"categories_nodes":[],"categories_segments":[],"categories_sizes":[],"default_left":[0,0,0,0,0,0,0,0,0,0,0,0,0,0,0,0,0,0,0,0,0,0,0,0,0],"id":24,"left_children":[1,3,5,7,9,11,13,-1,15,-1,17,-1,19,21,23,-1,-1,-1,-1,-1,-1,-1,-1,-1,-1],"loss_changes":[5.954766E2,2.639133E2,5.335724E0,4.9273926E1,1.2987971E2,3.4374084E0,8.815598E0,0E0,2.5378418E-1,0E0,2.3198877E2,0E0,9.264128E0,2.303444E0,1.0262391E1,0E0,0E0,0E0,0E0,0E0,0E0,0E0,0E0,0E0,0E0],"parents":[2147483647,0,0,1,1,2,2,3,3,4,4,5,5,6,6,8,8,10,10,12,12,13,13,14,14],"right_children":[2,4,6,8,10,12,14,-1,16,-1,18,-1,20,22,24,-1,-1,-1,-1,-1,-1,-1,-1,-1,-1],"split_conditions":[3.9354474E2,5.833333E-1,1E0,1E0,1.0416666E0,1E0,7.9166665E0,-1.306629E-2,2.53E2,-1.6516756E-2,1E0,-1.6789809E-2,9E0,2E0,1.6746405E2,1.0076002E-1,3.1711332E-2,-1.6290676E-2,9.2869915E-2,-1.5102959E-2,1.0760563E-2,-1.4563825E-2,1.7824965E-2,4.040176E-2,-4.2168666E-3],"split_indices":[2,10,15,15,10,16,10,0,5,0,16,0,11,16,1,0,0,0,0,0,0,0,0,0,0],"split_type":[0,0,0,0,0,0,0,0,0,0,0,0,0,0,0,0,0,0,0,0,0,0,0,0,0],"sum_hessian":[1.8087091E3,1.8609033E2,1.6226188E3,5.8124924E1,1.279654E2,1.5103867E3,1.1223202E2,3.4781077E0,5.4646816E1,5.868785E1,6.927755E1,1.4339595E3,7.642724E1,8.7855E1,2.437702E1,5.345993E1,1.186889E0,3.1486732E1,3.7790817E1,6.1634365E1,1.4792869E1,8.66416E1,1.2133985E0,5.0423455E0,1.9334675E1],"tree_param":{"num_deleted":"0","num_feature":"26","num_nodes":"25","size_leaf_vector":"1"}},{"base_weights":[-5.014794E-1,-5.527028E-1,4.7691983E-1,-5.538611E-1,8.600193E-2,-5.1888645E-1,1.1507214E0,-1.67908E-2,-4.480699E-1,2.1400165E-2,-1.1121714E-2,-1.634372E-2,-1.01280995E-1,-1.4389442E-1,2.9816148E0,-1.6158024E-2,-4.087164E-3,6.5439185E-3,-9.8013915E-3,6.548169E-2,-1.5169202E-2,2.2675484E-2,9.654682E-2],"categories":[],"categories_nodes":[],"categories_segments":[],"categories_sizes":[],"default_left":[0,0,0,0,0,0,0,0,0,0,0,0,0,0,0,0,0,0,0,0,0,0,0],"id":25,"left_children":[1,3,5,7,9,11,13,-1,15,-1,-1,-1,17,19,21,-1,-1,-1,-1,-1,-1,-1,-1],"loss_changes":[9.017734E1,1.3092041E0,6.084516E1,7.9956055E-1,1.396932E0,3.4428406E-1,1.281063E2,0E0,2.5791607E0,0E0,0E0,0E0,3.15015E-1,2.8463634E1,9.341995E0,0E0,0E0,0E0,0E0,0E0,0E0,0E0,0E0],"parents":[2147483647,0,0,1,1,2,2,3,3,4,4,5,5,6,6,8,8,12,12,13,13,14,14],"right_children":[2,4,6,8,10,12,14,-1,16,-1,-1,-1,18,20,22,-1,-1,-1,-1,-1,-1,-1,-1],"split_conditions":[1.19165146E2,2E0,1E0,1E0,4.8333335E0,1.28E2,2.375E0,-1.67908E-2,2.375E0,2.1400165E-2,-1.1121714E-2,-1.634372E-2,3.5E1,2.5E-1,3.8756802E2,-1.6158024E-2,-4.087164E-3,6.5439185E-3,-9.8013915E-3,6.548169E-2,-1.5169202E-2,2.2675484E-2,9.654682E-2],"split_indices":[3,17,17,17,9,5,12,0,12,0,0,0,6,12,2,0,0,0,0,0,0,0,0],"split_type":[0,0,0,0,0,0,0,0,0,0,0,0,0,0,0,0,0,0,0,0,0,0,0],"sum_hessian":[1.7930813E3,1.7042896E3,8.87917E1,1.701337E3,2.9525225E0,3.5926346E1,5.2865356E1,1.6083765E3,9.296065E1,1.0072111E0,1.9453114E0,3.3541206E1,2.3851373E0,3.1507772E1,2.1357586E1,7.148104E1,2.1479609E1,1.0002645E0,1.3848727E0,3.562325E0,2.7945446E1,2.455324E0,1.8902262E1],"tree_param":{"num_deleted":"0","num_feature":"26","num_nodes":"23","size_leaf_vector":"1"}},{"base_weights":[-4.8823038E-1,-1.6791115E-2,5.772841E-1,-2.1665291E-1,2.401285E0,1.0684242E0,-5.062166E-1,-2.9190583E-2,2.8825703E0,-1.08028855E-2,6.8595916E-2,-1.6029464E-2,-4.9597477E-3,-1.3347802E-2,2.077026E-2,9.724625E-2,4.005041E-2],"categories":[],"categories_nodes":[],"categories_segments":[],"categories_sizes":[],"default_left":[0,0,0,0,0,0,0,0,0,0,0,0,0,0,0,0,0],"id":26,"left_children":[1,-1,3,5,7,9,11,13,15,-1,-1,-1,-1,-1,-1,-1,-1],"loss_changes":[1.3704681E2,0E0,1.6466609E2,3.0269348E1,4.039145E1,2.694707E1,5.426922E-1,2.3134837E0,1.1656418E1,0E0,0E0,0E0,0E0,0E0,0E0,0E0,0E0],"parents":[2147483647,0,0,2,2,3,3,4,4,5,5,6,6,7,7,8,8],"right_children":[2,-1,4,6,8,10,12,14,16,-1,-1,-1,-1,-1,-1,-1,-1],"split_conditions":[1E0,-1.6791115E-2,4E0,5E-1,4.1255783E1,4.2902042E1,5.1191185E1,8E0,1E0,-1.08028855E-2,6.8595916E-2,-1.6029464E-2,-4.9597477E-3,-1.3347802E-2,2.077026E-2,9.724625E-2,4.005041E-2],"split_indices":[18,0,13,13,4,4,4,23,16,0,0,0,0,0,0,0,0],"split_type":[0,0,0,0,0,0,0,0,0,0,0,0,0,0,0,0,0],"sum_hessian":[1.7943114E3,1.681962E3,1.12349304E2,7.889132E1,3.3457985E1,1.4012846E1,6.487847E1,5.685539E0,2.7772446E1,6.773583E0,7.2392635E0,5.941374E1,5.4647346E0,3.8503716E0,1.835167E0,2.1654778E1,6.117668E0],"tree_param":{"num_deleted":"0","num_feature":"26","num_nodes":"17","size_leaf_vector":"1"}},{"base_weights":[2.6997447E0,2.556355E-1,2.8785672E0,2.7014422E0,-4.9091423E-1,2.9706948E0,8.8789034E-1,2.8385818E0,4.7387645E-1,6.1885048E-2,-5.462631E-1,3.0578666E0,9.859693E-1,2.85023E0,-4.989565E-1,8.842826E-2,2.6822449E-3,3.35964E-2,-9.704118E-3,-6.996904E-3,-1.6626216E-2,9.350319E-2,3.9378516E-2,8.95618E-2,-1.0499449E-2,8.808122E-2,-8.803925E-3,-1.5453186E-2,6.477991E-3],"categories":[],"categories_nodes":[],"categories_segments":[],"categories_sizes":[],"default_left":[0,0,0,0,0,0,0,0,0,0,0,0,0,0,0,0,0,0,0,0,0,0,0,0,0,0,0,0,0],"id":27,"left_children":[1,3,5,7,9,11,13,15,17,-1,19,21,23,25,27,-1,-1,-1,-1,-1,-1,-1,-1,-1,-1,-1,-1,-1,-1],"loss_changes":[1.034373E3,2.981522E2,4.0207617E2,1.0315308E1,1.885077E1,3.6182227E2,2.7094897E2,1.0453735E1,2.1207824E0,0E0,1.7790985E-1,2.035293E2,2.4197498E2,1.1964722E1,7.909975E-1,0E0,0E0,0E0,0E0,0E0,0E0,0E0,0E0,0E0,0E0,0E0,0E0,0E0,0E0],"parents":[2147483647,0,0,1,1,2,2,3,3,4,4,5,5,6,6,7,7,8,8,10,10,11,11,12,12,13,13,14,14],"right_children":[2,4,6,8,10,12,14,16,18,-1,20,22,24,26,28,-1,-1,-1,-1,-1,-1,-1,-1,-1,-1,-1,-1,-1,-1],"split_conditions":[3.8509454E2,1E0,1E0,1.0535088E2,1E0,1.852591E2,4.2902042E1,1.9010712E2,5E0,6.1885048E-2,2E0,1.2149161E2,1E0,1.9079745E2,1.09E2,8.842826E-2,2.6822449E-3,3.35964E-2,-9.704118E-3,-6.996904E-3,-1.6626216E-2,9.350319E-2,3.9378516E-2,8.95618E-2,-1.0499449E-2,8.808122E-2,-8.803925E-3,-1.5453186E-2,6.477991E-3],"split_indices":[2,16,18,3,15,1,4,1,23,0,8,3,14,1,10,0,0,0,0,0,0,0,0,0,0,0,0,0,0],"split_type":[0,0,0,0,0,0,0,0,0,0,0,0,0,0,0,0,0,0,0,0,0,0,0,0,0,0,0,0,0],"sum_hessian":[2.3673396E3,1.6156276E2,2.2057769E3,3.7169956E1,1.2439281E2,2.1077395E3,9.803741E1,3.4755917E1,2.4140384E0,1.8694265E0,1.22523384E2,2.0185417E3,8.919776E1,4.015885E1,5.787856E1,3.3360714E1,1.3952025E0,1.1101205E0,1.3039179E0,3.783784E0,1.187396E2,1.9518754E3,6.6666435E1,3.523274E1,5.3965023E1,3.9156097E1,1.0027571E0,5.6873222E1,1.0053331E0],"tree_param":{"num_deleted":"0","num_feature":"26","num_nodes":"29","size_leaf_vector":"1"}},{"base_weights":[-4.5846885E-1,-5.573034E-1,9.3464136E-1,-1.6755085E-2,-2.4390799E-1,2.1777573E0,-1.6460165E-2,2.104862E-2,-1.44064855E-2,-2.980297E-1,2.7833066E0,-1.532221E-2,1.7622072E-2,3.7813004E-2,8.7306954E-2],"categories":[],"categories_nodes":[],"categories_segments":[],"categories_sizes":[],"default_left":[0,0,0,0,0,0,0,0,0,0,0,0,0,0,0],"id":28,"left_children":[1,3,5,-1,7,9,-1,-1,-1,11,13,-1,-1,-1,-1],"loss_changes":[2.4479156E2,4.8675537E-1,2.1859305E2,0E0,2.1453202E0,9.729532E1,0E0,0E0,0E0,2.851715E0,6.343567E0,0E0,0E0,0E0,0E0],"parents":[2147483647,0,0,1,1,2,2,4,4,5,5,9,9,10,10],"right_children":[2,4,6,-1,8,10,-1,-1,-1,12,14,-1,-1,-1,-1],"split_conditions":[1.838359E2,1.813328E2,1.0416666E0,-1.6755085E-2,4.2916665E0,1E0,-1.6460165E-2,2.104862E-2,-1.44064855E-2,2E0,3.8208234E2,-1.532221E-2,1.7622072E-2,3.7813004E-2,8.7306954E-2],"split_indices":[1,1,9,0,9,9,0,0,0,14,2,0,0,0,0],"split_type":[0,0,0,0,0,0,0,0,0,0,0,0,0,0,0],"sum_hessian":[1.7730958E3,1.6561965E3,1.1689932E2,1.6491029E3,7.093542E0,6.334435E1,5.3554974E1,1.0246336E0,6.0689087E0,1.2548337E1,5.0796013E1,1.0458924E1,2.0894122E0,4.7488556E0,4.6047157E1],"tree_param":{"num_deleted":"0","num_feature":"26","num_nodes":"15","size_leaf_vector":"1"}},{"base_weights":[-4.0826657E-1,8.7451565E-1,-1.6735932E-2,2.2177572E0,-1.6584555E-2,-1.5828695E-2,2.805232E0,8.920724E-2,4.335254E-2],"categories":[],"categories_nodes":[],"categories_segments":[],"categories_sizes":[],"default_left":[0,0,0,0,0,0,0,0,0],"id":29,"left_children":[1,3,-1,5,-1,-1,7,-1,-1],"loss_changes":[3.423122E2,3.586468E2,0E0,1.5670047E2,0E0,0E0,1.3891113E1,0E0,0E0],"parents":[2147483647,0,0,1,1,3,3,6,6],"right_children":[2,4,-1,6,-1,-1,8,-1,-1],"split_conditions":[3.9354474E2,1.2083334E0,-1.6735932E-2,1E0,-1.6584555E-2,-1.5828695E-2,1E0,8.920724E-2,4.335254E-2],"split_indices":[2,11,0,11,0,0,18,0,0],"split_type":[0,0,0,0,0,0,0,0,0],"sum_hessian":[1.7802491E3,1.8542323E2,1.5948258E3,9.52403E1,9.018293E1,1.6805748E1,7.8434555E1,6.874047E1,9.694084E0],"tree_param":{"num_deleted":"0","num_feature":"26","num_nodes":"9","size_leaf_vector":"1"}},{"base_weights":[-4.901418E-1,-5.567305E-1,8.2185674E-1,-1.6755056E-2,-1.2265131E-1,2.202708E0,-1.6403092E-2,6.062853E-1,-1.401029E-2,-1.4862658E-2,2.802436E0,3.5406053E-2,-8.460899E-3,2.4411272E-2,8.750567E-2],"categories":[],"categories_nodes":[],"categories_segments":[],"categories_sizes":[],"default_left":[0,0,0,0,0,0,0,0,0,0,0,0,0,0,0],"id":30,"left_children":[1,3,5,-1,7,9,-1,11,-1,-1,13,-1,-1,-1,-1],"loss_changes":[1.5506436E2,1.2268677E0,1.6351237E2,0E0,2.3235228E0,7.088687E1,0E0,1.8842758E0,0E0,0E0,5.6565857E0,0E0,0E0,0E0,0E0],"parents":[2147483647,0,0,1,1,2,2,4,4,5,5,7,7,10,10],"right_children":[2,4,6,-1,8,10,-1,12,-1,-1,14,-1,-1,-1,-1],"split_conditions":[1.2149161E2,1.19165146E2,1.25E0,-1.6755056E-2,1.6750053E2,2.5E-1,-1.6403092E-2,1.25E0,-1.401029E-2,-1.4862658E-2,3.7085626E2,3.5406053E-2,-8.460899E-3,2.4411272E-2,8.750567E-2],"split_indices":[3,3,12,0,1,12,0,12,0,0,2,0,0,0,0],"split_type":[0,0,0,0,0,0,0,0,0,0,0,0,0,0,0],"sum_hessian":[1.7686807E3,1.6837976E3,8.488316E1,1.6766691E3,7.1285124E0,4.1949516E1,4.293365E1,2.043088E0,5.0854244E0,7.660306E0,3.428921E1,1.0415719E0,1.0015161E0,2.306775E0,3.1982435E1],"tree_param":{"num_deleted":"0","num_feature":"26","num_nodes":"15","size_leaf_vector":"1"}},{"base_weights":[-4.535071E-1,-1.675485E-2,1.0027413E0,1.8205448E0,-1.6371666E-2,-4.6986276E-1,2.4308774E0,-1.5746254E-2,4.602655E-3,-1.39654325E-2,8.067926E-2],"categories":[],"categories_nodes":[],"categories_segments":[],"categories_sizes":[],"default_left":[0,0,0,0,0,0,0,0,0,0,0],"id":31,"left_children":[1,-1,3,5,-1,7,9,-1,-1,-1,-1],"loss_changes":[2.7194077E2,0E0,1.5260236E2,1.1098404E2,0E0,6.7614436E-1,4.7813385E1,0E0,0E0,0E0,0E0],"parents":[2147483647,0,0,2,2,3,3,5,5,6,6],"right_children":[2,-1,4,6,-1,8,10,-1,-1,-1,-1],"split_conditions":[1E0,-1.675485E-2,1.75E0,1E0,-1.6371666E-2,8.775E1,4.1321953E1,-1.5746254E-2,4.602655E-3,-1.39654325E-2,8.067926E-2],"split_indices":[18,0,13,13,0,10,4,0,0,0,0],"split_type":[0,0,0,0,0,0,0,0,0,0,0],"sum_hessian":[1.774024E3,1.6553019E3,1.1872217E2,7.757572E1,4.114645E1,1.6370811E1,6.1204906E1,1.5188162E1,1.1826495E0,4.948032E0,5.6256878E1],"tree_param":{"num_deleted":"0","num_feature":"26","num_nodes":"11","size_leaf_vector":"1"}},{"base_weights":[-4.7175175E-1,-5.418003E-1,6.231898E-1,-1.6754597E-2,-3.1555906E-1,-2.121562E-1,1.3416828E0,-4.8683295E-1,2.672008E-1,6.762794E-1,-1.6307155E-2,-1.6171612E-2,2.99823E0,1.9513448E-3,-1.6559863E-2,-1.5755139E-3,2.1528594E-2,5.813807E-3,5.73665E-2,2.9031757E-2,9.168858E-2],"categories":[],"categories_nodes":[],"categories_segments":[],"categories_sizes":[],"default_left":[0,0,0,0,0,0,0,0,0,0,0,0,0,0,0,0,0,0,0,0,0],"id":32,"left_children":[1,3,5,-1,7,9,11,13,15,17,-1,-1,19,-1,-1,-1,-1,-1,-1,-1,-1],"loss_changes":[1.3625809E2,6.1134644E0,6.451671E1,0E0,1.1782168E1,1.5192478E1,1.8128989E2,3.2932568E0,3.9492886E0,8.052313E0,0E0,0E0,6.749573E-1,0E0,0E0,0E0,0E0,0E0,0E0,0E0,0E0],"parents":[2147483647,0,0,1,1,2,2,4,4,5,5,6,6,7,7,8,8,9,9,12,12],"right_children":[2,4,6,-1,8,10,12,14,16,18,-1,-1,20,-1,-1,-1,-1,-1,-1,-1,-1],"split_conditions":[1.852591E2,1E0,1.2083334E0,-1.6754597E-2,2.2916667E0,1E0,1E0,1.6666667E-1,4.5E1,1.06E2,-1.6307155E-2,-1.6171612E-2,2.2916667E0,1.9513448E-3,-1.6559863E-2,-1.5755139E-3,2.1528594E-2,5.813807E-3,5.73665E-2,2.9031757E-2,9.168858E-2],"split_indices":[1,14,9,0,9,9,14,9,7,7,0,0,9,0,0,0,0,0,0,0,0],"split_type":[0,0,0,0,0,0,0,0,0,0,0,0,0,0,0,0,0,0,0,0,0],"sum_hessian":[1.7711254E3,1.6651058E3,1.0601951E2,1.549365E3,1.1574086E2,4.9349136E1,5.6670376E1,8.9578285E1,2.616257E1,1.3124723E1,3.622441E1,2.6855251E1,2.9815125E1,9.460096E0,8.011819E1,1.5817994E1,1.0344577E1,1.0271665E1,2.853059E0,1.3199217E0,2.8495203E1],"tree_param":{"num_deleted":"0","num_feature":"26","num_nodes":"21","size_leaf_vector":"1"}},{"base_weights":[-3.354587E-1,1.2856373E0,-5.311367E-1,2.8268263E0,5.238388E-1,-5.471162E-1,-3.1421712E-1,-1.3013858E-2,9.060513E-2,-1.6475512E-2,1.3820673E0,-1.6753683E-2,-3.3100137E-1,-4.6167627E-1,2.0680283E-1,-1.629469E-2,8.484163E-2,-1.504686E-2,1.0595868E-2,-1.4500367E-2,1.7595861E-2,3.898908E-2,-4.133928E-3],"categories":[],"categories_nodes":[],"categories_segments":[],"categories_sizes":[],"default_left":[0,0,0,0,0,0,0,0,0,0,0,0,0,0,0,0,0,0,0,0,0,0,0],"id":33,"left_children":[1,3,5,7,9,11,13,-1,-1,-1,15,-1,17,19,21,-1,-1,-1,-1,-1,-1,-1,-1],"loss_changes":[5.68894E2,2.2537698E2,5.3707886E0,4.1460632E1,1.20968E2,3.461731E0,8.705072E0,0E0,0E0,0E0,2.0422983E2,0E0,9.120743E0,2.2743988E0,9.74833E0,0E0,0E0,0E0,0E0,0E0,0E0,0E0,0E0],"parents":[2147483647,0,0,1,1,2,2,3,3,4,4,5,5,6,6,10,10,12,12,13,13,14,14],"right_children":[2,4,6,8,10,12,14,-1,-1,-1,16,-1,18,20,22,-1,-1,-1,-1,-1,-1,-1,-1],"split_conditions":[3.9354474E2,5.833333E-1,1E0,1E0,1.0416666E0,1E0,7.9166665E0,-1.3013858E-2,9.060513E-2,-1.6475512E-2,1E0,-1.6753683E-2,9E0,2E0,1.6746405E2,-1.629469E-2,8.484163E-2,-1.504686E-2,1.0595868E-2,-1.4500367E-2,1.7595861E-2,3.898908E-2,-4.133928E-3],"split_indices":[2,10,15,15,10,16,10,0,0,0,15,0,11,16,1,0,0,0,0,0,0,0,0],"split_type":[0,0,0,0,0,0,0,0,0,0,0,0,0,0,0,0,0,0,0,0,0,0,0],"sum_hessian":[1.7902618E3,1.9222252E2,1.5980393E3,6.2688046E1,1.2953447E2,1.4869778E3,1.1106157E2,3.4395115E0,5.9248535E1,5.7723843E1,7.181064E1,1.4113384E3,7.563941E1,8.665138E1,2.4410189E1,3.106898E1,4.0741657E1,6.075979E1,1.4879621E1,8.542431E1,1.2270776E0,5.187527E0,1.922266E1],"tree_param":{"num_deleted":"0","num_feature":"26","num_nodes":"23","size_leaf_vector":"1"}},{"base_weights":[-4.995893E-1,-5.5139714E-1,4.6562302E-1,-5.5257183E-1,8.7182745E-2,-5.1787853E-1,1.1117985E0,-1.6754577E-2,-4.4561124E-1,2.1208378E-2,-1.10778315E-2,-1.631795E-2,-1.0223247E-1,-1.3882552E-1,2.7514193E0,-1.611375E-2,-4.0031E-3,-9.810001E-3,6.4948685E-3,6.196424E-2,-1.509571E-2,2.210141E-2,8.859409E-2],"categories":[],"categories_nodes":[],"categories_segments":[],"categories_sizes":[],"default_left":[0,0,0,0,0,0,0,0,0,0,0,0,0,0,0,0,0,0,0,0,0,0,0],"id":34,"left_children":[1,3,5,7,9,11,13,-1,15,-1,-1,-1,17,19,21,-1,-1,-1,-1,-1,-1,-1,-1],"loss_changes":[8.867862E1,1.3074036E0,5.8164726E1,8.110962E-1,1.3772902E0,3.4086704E-1,1.1317276E2,0E0,2.5778828E0,0E0,0E0,0E0,3.1372556E-1,2.6866129E1,7.5166473E0,0E0,0E0,0E0,0E0,0E0,0E0,0E0,0E0],"parents":[2147483647,0,0,1,1,2,2,3,3,4,4,5,5,6,6,8,8,12,12,13,13,14,14],"right_children":[2,4,6,8,10,12,14,-1,16,-1,-1,-1,18,20,22,-1,-1,-1,-1,-1,-1,-1,-1],"split_conditions":[1.19165146E2,2E0,1E0,1E0,1.4E1,1.28E2,2.375E0,-1.6754577E-2,2.375E0,2.1208378E-2,-1.10778315E-2,-1.631795E-2,1.9E1,2.5E-1,3.8756802E2,-1.611375E-2,-4.0031E-3,-9.810001E-3,6.4948685E-3,6.196424E-2,-1.509571E-2,2.210141E-2,8.859409E-2],"split_indices":[3,17,17,17,13,5,12,0,12,0,0,0,25,12,2,0,0,0,0,0,0,0,0],"split_type":[0,0,0,0,0,0,0,0,0,0,0,0,0,0,0,0,0,0,0,0,0,0,0],"sum_hessian":[1.76724E3,1.6776222E3,8.961782E1,1.6746763E3,2.945895E0,3.561266E1,5.400516E1,1.5829316E3,9.1744675E1,1.016657E0,1.9292381E0,3.3221645E1,2.391016E0,3.1156109E1,2.2849052E1,7.038945E1,2.1355223E1,1.3869699E0,1.0040462E0,3.7572353E0,2.7398874E1,2.5028927E0,2.0346159E1],"tree_param":{"num_deleted":"0","num_feature":"26","num_nodes":"23","size_leaf_vector":"1"}},{"base_weights":[-4.8622662E-1,-1.675485E-2,5.610894E-1,-2.1399535E-1,2.2341115E0,1.0264755E0,-5.043917E-1,-2.7142717E-2,2.651287E0,-1.0728089E-2,6.4120784E-2,-1.5984213E-2,-4.8984652E-3,-1.328689E-2,2.0378675E-2,3.3706255E-2,8.76243E-2],"categories":[],"categories_nodes":[],"categories_segments":[],"categories_sizes":[],"default_left":[0,0,0,0,0,0,0,0,0,0,0,0,0,0,0,0,0],"id":35,"left_children":[1,-1,3,5,7,9,11,13,15,-1,-1,-1,-1,-1,-1,-1,-1],"loss_changes":[1.3428519E2,0E0,1.492846E2,2.9096586E1,3.442787E1,2.4410206E1,5.4261017E-1,2.2575924E0,9.382965E0,0E0,0E0,0E0,0E0,0E0,0E0,0E0,0E0],"parents":[2147483647,0,0,2,2,3,3,4,4,5,5,6,6,7,7,8,8],"right_children":[2,-1,4,6,8,10,12,14,16,-1,-1,-1,-1,-1,-1,-1,-1],"split_conditions":[1E0,-1.675485E-2,4E0,5E-1,4.1255783E1,4.2902042E1,5.1191185E1,8E0,3.786439E2,-1.0728089E-2,6.4120784E-2,-1.5984213E-2,-4.8984652E-3,-1.328689E-2,2.0378675E-2,3.3706255E-2,8.76243E-2],"split_indices":[18,0,13,13,4,4,4,23,2,0,0,0,0,0,0,0,0],"split_type":[0,0,0,0,0,0,0,0,0,0,0,0,0,0,0,0,0],"sum_hessian":[1.7690566E3,1.6553019E3,1.1375483E2,7.833538E1,3.541945E1,1.4378925E1,6.395645E1,5.6623316E0,2.9757118E1,6.704148E0,7.674777E0,5.851961E1,5.4368396E0,3.7993603E0,1.8629713E0,5.2375536E0,2.4519566E1],"tree_param":{"num_deleted":"0","num_feature":"26","num_nodes":"17","size_leaf_vector":"1"}},{"base_weights":[2.4863384E0,2.505492E-1,2.639735E0,2.4922407E0,-4.8887452E-1,2.7183514E0,8.541753E-1,2.5811164E0,2.0541456E-3,5.894855E-2,-5.4489803E-1,2.792396E0,9.4664353E-1,2.6180842E0,-4.9712324E-1,8.1845164E-2,2.173729E-2,-6.9049587E-3,-1.658862E-2,8.527328E-2,3.7443563E-2,8.207702E-2,-1.0416301E-2,8.12102E-2,1.7514145E-3,-1.5403511E-2,6.3891793E-3],"categories":[],"categories_nodes":[],"categories_segments":[],"categories_sizes":[],"default_left":[0,0,0,0,0,0,0,0,0,0,0,0,0,0,0,0,0,0,0,0,0,0,0,0,0,0,0],"id":36,"left_children":[1,3,5,7,9,11,13,15,-1,-1,17,19,21,23,25,-1,-1,-1,-1,-1,-1,-1,-1,-1,-1,-1,-1],"loss_changes":[8.6519727E2,2.717296E2,3.293047E2,8.5784E0,1.80561E1,2.9414258E2,2.4225119E2,8.719482E0,0E0,0E0,1.8098831E-1,1.6424805E2,2.1455869E2,9.85907E0,7.827072E-1,0E0,0E0,0E0,0E0,0E0,0E0,0E0,0E0,0E0,0E0,0E0,0E0],"parents":[2147483647,0,0,1,1,2,2,3,3,4,4,5,5,6,6,7,7,10,10,11,11,12,12,13,13,14,14],"right_children":[2,4,6,8,10,12,14,16,-1,-1,18,20,22,24,26,-1,-1,-1,-1,-1,-1,-1,-1,-1,-1,-1,-1],"split_conditions":[3.8509454E2,1E0,1E0,1.2379192E2,1E0,1.852591E2,4.2902042E1,4.703413E1,2.0541456E-3,5.894855E-2,2E0,1.2149161E2,1E0,1.1492877E2,1.09E2,8.1845164E-2,2.173729E-2,-6.9049587E-3,-1.658862E-2,8.527328E-2,3.7443563E-2,8.207702E-2,-1.0416301E-2,8.12102E-2,1.7514145E-3,-1.5403511E-2,6.3891793E-3],"split_indices":[2,16,18,3,15,1,4,4,0,0,8,3,14,3,10,0,0,0,0,0,0,0,0,0,0,0,0],"split_type":[0,0,0,0,0,0,0,0,0,0,0,0,0,0,0,0,0,0,0,0,0,0,0,0,0,0,0],"sum_hessian":[2.5236438E3,1.6219846E2,2.3614453E3,3.9643074E1,1.2255538E2,2.2613574E3,1.0008782E2,3.817822E1,1.4648541E0,1.9750408E0,1.2058034E2,2.1700874E3,9.127013E1,4.300893E1,5.707889E1,3.494106E1,3.237161E0,3.7473733E0,1.1683297E2,2.1011528E3,6.8934525E1,3.7834557E1,5.3435566E1,4.1509373E1,1.4995593E0,5.606669E1,1.0122046E0],"tree_param":{"num_deleted":"0","num_feature":"26","num_nodes":"27","size_leaf_vector":"1"}},{"base_weights":[-4.5627767E-1,-5.5609614E-1,9.00097E-1,-1.6719392E-2,-2.4039894E-1,2.036257E0,-1.6421078E-2,2.077493E-2,-1.4349487E-2,-2.9561034E-1,2.5675957E0,-1.5278553E-2,1.7199213E-2,7.928933E-2,2.141225E-2],"categories":[],"categories_nodes":[],"categories_segments":[],"categories_sizes":[],"default_left":[0,0,0,0,0,0,0,0,0,0,0,0,0,0,0],"id":37,"left_children":[1,3,5,-1,7,9,-1,-1,-1,11,13,-1,-1,-1,-1],"loss_changes":[2.374469E2,4.925232E-1,1.9903E2,0E0,2.1114175E0,8.4559814E1,0E0,0E0,0E0,2.788837E0,5.8258057E0,0E0,0E0,0E0,0E0],"parents":[2147483647,0,0,1,1,2,2,4,4,5,5,9,9,10,10],"right_children":[2,4,6,-1,8,10,-1,-1,-1,12,14,-1,-1,-1,-1],"split_conditions":[1.838359E2,1.813328E2,1.0416666E0,-1.6719392E-2,4.2916665E0,1E0,-1.6421078E-2,2.077493E-2,-1.4349487E-2,2E0,4.9559647E1,-1.5278553E-2,1.7199213E-2,7.928933E-2,2.141225E-2],"split_indices":[1,1,9,0,9,9,0,0,0,14,4,0,0,0,0],"split_type":[0,0,0,0,0,0,0,0,0,0,0,0,0,0,0],"sum_hessian":[1.7490864E3,1.6297405E3,1.19346E2,1.6227198E3,7.0205736E0,6.663522E1,5.2710777E1,1.0383677E0,5.982206E0,1.2448148E1,5.418708E1,1.0323412E1,2.1247363E0,5.1660767E1,2.5263135E0],"tree_param":{"num_deleted":"0","num_feature":"26","num_nodes":"15","size_leaf_vector":"1"}},{"base_weights":[-4.0580043E-1,8.4283656E-1,-1.6699988E-2,2.0701063E0,-1.6547007E-2,-1.578297E-2,2.5832822E0,8.175798E-2,4.1538455E-2],"categories":[],"categories_nodes":[],"categories_segments":[],"categories_sizes":[],"default_left":[0,0,0,0,0,0,0,0,0],"id":38,"left_children":[1,3,-1,5,-1,-1,7,-1,-1],"loss_changes":[3.3190067E2,3.2639545E2,0E0,1.363211E2,0E0,0E0,1.0650269E1,0E0,0E0],"parents":[2147483647,0,0,1,1,3,3,6,6],"right_children":[2,4,-1,6,-1,-1,8,-1,-1],"split_conditions":[3.9354474E2,1.2083334E0,-1.6699988E-2,1E0,-1.6547007E-2,-1.578297E-2,1E0,8.175798E-2,4.1538455E-2],"split_indices":[2,11,0,11,0,0,18,0,0],"split_type":[0,0,0,0,0,0,0,0,0],"sum_hessian":[1.7584082E3,1.890613E2,1.5693469E3,1.0029931E2,8.876198E1,1.6549358E1,8.3749954E1,7.374158E1,1.0008375E1],"tree_param":{"num_deleted":"0","num_feature":"26","num_nodes":"9","size_leaf_vector":"1"}},{"base_weights":[-4.8819634E-1,-5.555131E-1,7.9422367E-1,-1.671931E-2,-1.1888095E-1,2.0664139E0,-1.6369665E-2,1.7972842E-2,-1.3946279E-2,-1.482359E-2,2.5976284E0,2.3837605E-2,8.087038E-2],"categories":[],"categories_nodes":[],"categories_segments":[],"categories_sizes":[],"default_left":[0,0,0,0,0,0,0,0,0,0,0,0,0],"id":39,"left_children":[1,3,5,-1,7,9,-1,-1,-1,-1,11,-1,-1],"loss_changes":[1.5102322E2,1.2347717E0,1.5011897E2,0E0,2.2825906E0,6.2552917E1,0E0,0E0,0E0,0E0,4.481491E0,0E0,0E0],"parents":[2147483647,0,0,1,1,2,2,4,4,5,5,10,10],"right_children":[2,4,6,-1,8,10,-1,-1,-1,-1,12,-1,-1],"split_conditions":[1.2149161E2,1.19165146E2,1.25E0,-1.671931E-2,1.6750053E2,2.5E-1,-1.6369665E-2,1.7972842E-2,-1.3946279E-2,-1.482359E-2,3.7085626E2,2.3837605E-2,8.087038E-2],"split_indices":[3,3,12,0,1,12,0,0,0,0,2,0,0],"split_type":[0,0,0,0,0,0,0,0,0,0,0,0,0],"sum_hessian":[1.7432947E3,1.6568882E3,8.640646E1,1.6498207E3,7.0674586E0,4.404465E1,4.2361813E1,2.0604005E0,5.007058E0,7.5796113E0,3.646504E1,2.350267E0,3.4114773E1],"tree_param":{"num_deleted":"0","num_feature":"26","num_nodes":"13","size_leaf_vector":"1"}},{"base_weights":[-4.512881E-1,-1.671911E-2,9.625211E-1,1.7133836E0,-1.633195E-2,-4.6787417E-1,2.2557275E0,-1.5704134E-2,4.622584E-3,-1.3909762E-2,7.443324E-2],"categories":[],"categories_nodes":[],"categories_segments":[],"categories_sizes":[],"default_left":[0,0,0,0,0,0,0,0,0,0,0],"id":40,"left_children":[1,-1,3,5,-1,7,9,-1,-1,-1,-1],"loss_changes":[2.6303217E2,0E0,1.3957327E2,9.8085846E1,0E0,6.740694E-1,4.151593E1,0E0,0E0,0E0,0E0],"parents":[2147483647,0,0,2,2,3,3,5,5,6,6],"right_children":[2,-1,4,6,-1,8,10,-1,-1,-1,-1],"split_conditions":[1E0,-1.671911E-2,1.75E0,1E0,-1.633195E-2,9E1,4.1321953E1,-1.5704134E-2,4.622584E-3,-1.3909762E-2,7.443324E-2],"split_indices":[18,0,13,13,0,0,4,0,0,0,0],"split_type":[0,0,0,0,0,0,0,0,0,0,0],"sum_hessian":[1.750305E3,1.6287759E3,1.2152921E2,8.1021225E1,4.050798E1,1.61609E1,6.486033E1,1.4980175E1,1.1807249E0,4.883227E0,5.99771E1],"tree_param":{"num_deleted":"0","num_feature":"26","num_nodes":"11","size_leaf_vector":"1"}},{"base_weights":[-4.6963727E-1,-5.403794E-1,6.054352E-1,-1.6718939E-2,-3.1232712E-1,-2.0888442E-1,1.279569E0,-4.8476407E-1,2.6432478E-1,6.5704614E-1,-1.6263412E-2,-1.6130973E-2,2.7542808E0,1.9687728E-3,-1.6521918E-2,-1.5082777E-3,2.0998867E-2,4.311504E-2,-9.603426E-4,-8.942139E-3,8.583117E-2],"categories":[],"categories_nodes":[],"categories_segments":[],"categories_sizes":[],"default_left":[0,0,0,0,0,0,0,0,0,0,0,0,0,0,0,0,0,0,0,0,0],"id":41,"left_children":[1,3,5,-1,7,9,11,13,15,17,-1,-1,19,-1,-1,-1,-1,-1,-1,-1,-1],"loss_changes":[1.3323172E2,6.154236E0,5.975443E1,0E0,1.1618061E1,1.476608E1,1.6073651E2,3.2785454E0,3.7693658E0,7.7486672E0,0E0,0E0,1.1595779E1,0E0,0E0,0E0,0E0,0E0,0E0,0E0,0E0],"parents":[2147483647,0,0,1,1,2,2,4,4,5,5,6,6,7,7,8,8,9,9,12,12],"right_children":[2,4,6,-1,8,10,12,14,16,18,-1,-1,20,-1,-1,-1,-1,-1,-1,-1,-1],"split_conditions":[1.852591E2,1E0,1.2083334E0,-1.6718939E-2,2.2916667E0,1E0,1E0,1.6666667E-1,4.5E1,8.333333E-1,-1.6263412E-2,-1.6130973E-2,2.2E1,1.9687728E-3,-1.6521918E-2,-1.5082777E-3,2.0998867E-2,4.311504E-2,-9.603426E-4,-8.942139E-3,8.583117E-2],"split_indices":[1,14,9,0,9,9,14,9,7,12,0,0,5,0,0,0,0,0,0,0,0],"split_type":[0,0,0,0,0,0,0,0,0,0,0,0,0,0,0,0,0,0,0,0,0],"sum_hessian":[1.7465275E3,1.6391643E3,1.0736325E2,1.5246134E3,1.1455086E2,4.8938347E1,5.8424904E1,8.830442E1,2.6246437E1,1.332923E1,3.5609116E1,2.64573E1,3.1967604E1,9.451476E0,7.885294E1,1.5754054E1,1.0492383E1,5.7423186E0,7.5869117E0,1.0197486E0,3.0947855E1],"tree_param":{"num_deleted":"0","num_feature":"26","num_nodes":"21","size_leaf_vector":"1"}},{"base_weights":[-3.3275858E-1,1.2262616E0,-5.29577E-1,2.599507E0,5.0916487E-1,-5.4577136E-1,-3.1090912E-1,-1.2963964E-2,2.7658439E0,-1.6434351E-2,1.3139867E0,-1.6718123E-2,-3.278299E-1,-4.5931375E-1,2.056672E-1,8.4512256E-2,4.4664364E-2,-1.6224757E-2,7.8182474E-2,-1.4989944E-2,1.0445957E-2,-1.44367805E-2,1.7373266E-2,3.7668403E-2,-4.0500574E-3],"categories":[],"categories_nodes":[],"categories_segments":[],"categories_sizes":[],"default_left":[0,0,0,0,0,0,0,0,0,0,0,0,0,0,0,0,0,0,0,0,0,0,0,0,0],"id":42,"left_children":[1,3,5,7,9,11,13,-1,15,-1,17,-1,19,21,23,-1,-1,-1,-1,-1,-1,-1,-1,-1,-1],"loss_changes":[5.4455884E2,1.9463977E2,5.40625E0,3.5497498E1,1.1298792E2,3.4880981E0,8.59602E0,0E0,3.3569336E-2,0E0,1.8167836E2,0E0,8.983755E0,2.2459297E0,9.268834E0,0E0,0E0,0E0,0E0,0E0,0E0,0E0,0E0,0E0,0E0],"parents":[2147483647,0,0,1,1,2,2,3,3,4,4,5,5,6,6,8,8,10,10,12,12,13,13,14,14],"right_children":[2,4,6,8,10,12,14,-1,16,-1,18,-1,20,22,24,-1,-1,-1,-1,-1,-1,-1,-1,-1,-1],"split_conditions":[3.9354474E2,5.833333E-1,1E0,1E0,1.0416666E0,1E0,7.9166665E0,-1.2963964E-2,4.9383247E1,-1.6434351E-2,1E0,-1.6718123E-2,9E0,2E0,1.6746405E2,8.4512256E-2,4.4664364E-2,-1.6224757E-2,7.8182474E-2,-1.4989944E-2,1.0445957E-2,-1.44367805E-2,1.7373266E-2,3.7668403E-2,-4.0500574E-3],"split_indices":[2,10,15,15,10,16,10,0,4,0,16,0,11,16,1,0,0,0,0,0,0,0,0,0,0],"split_type":[0,0,0,0,0,0,0,0,0,0,0,0,0,0,0,0,0,0,0,0,0,0,0,0,0],"sum_hessian":[1.7715928E3,1.9799808E2,1.5735946E3,6.702318E1,1.309749E2,1.4636985E3,1.0989612E2,3.4029717E0,6.3620205E1,5.6756126E1,7.421878E1,1.3888604E3,7.483824E1,8.545657E1,2.4439543E1,6.0006916E1,3.613288E0,3.0712383E1,4.3506393E1,5.987892E1,1.495932E1,8.421607E1,1.240504E0,5.3291893E0,1.9110353E1],"tree_param":{"num_deleted":"0","num_feature":"26","num_nodes":"25","size_leaf_vector":"1"}},{"base_weights":[-4.9771452E-1,-5.501052E-1,4.5504838E-1,-5.512968E-1,8.861838E-2,-5.1688385E-1,1.0762458E0,-1.6718857E-2,-4.431319E-1,2.0924315E-2,-1.1016396E-2,-1.6292332E-2,-1.03658244E-1,-1.337824E-1,2.5570107E0,-1.6069843E-2,-3.9150477E-3,6.517438E-3,-9.85273E-3,5.878428E-2,-1.5022137E-2,2.1632891E-2,8.192193E-2],"categories":[],"categories_nodes":[],"categories_segments":[],"categories_sizes":[],"default_left":[0,0,0,0,0,0,0,0,0,0,0,0,0,0,0,0,0,0,0,0,0,0,0],"id":43,"left_children":[1,3,5,7,9,11,13,-1,15,-1,-1,-1,17,19,21,-1,-1,-1,-1,-1,-1,-1,-1],"loss_changes":[8.7226166E1,1.3062134E0,5.5720337E1,8.2302856E-1,1.3490123E0,3.366356E-1,1.0079845E2,0E0,2.5779018E0,0E0,0E0,0E0,3.1657666E-1,2.541056E1,6.0878143E0,0E0,0E0,0E0,0E0,0E0,0E0,0E0,0E0],"parents":[2147483647,0,0,1,1,2,2,3,3,4,4,5,5,6,6,8,8,12,12,13,13,14,14],"right_children":[2,4,6,8,10,12,14,-1,16,-1,-1,-1,18,20,22,-1,-1,-1,-1,-1,-1,-1,-1],"split_conditions":[1.19165146E2,2E0,1E0,1E0,4.8333335E0,1.28E2,2.375E0,-1.6718857E-2,2.375E0,2.0924315E-2,-1.1016396E-2,-1.6292332E-2,2.0833333E-1,2.5E-1,3.8756802E2,-1.6069843E-2,-3.9150477E-3,6.517438E-3,-9.85273E-3,5.878428E-2,-1.5022137E-2,2.1632891E-2,8.192193E-2],"split_indices":[3,17,17,17,9,5,12,0,12,0,0,0,10,12,2,0,0,0,0,0,0,0,0],"split_type":[0,0,0,0,0,0,0,0,0,0,0,0,0,0,0,0,0,0,0,0,0,0,0],"sum_hessian":[1.741447E3,1.6510798E3,9.036724E1,1.648142E3,2.9378142E0,3.5301716E1,5.5065525E1,1.5576096E3,9.053242E1,1.0308189E0,1.9069954E0,3.2901863E1,2.3998492E0,3.0803587E1,2.426194E1,6.930635E1,2.1226068E1,1.0022918E0,1.3975573E0,3.9472282E0,2.685636E1,2.5425577E0,2.1719381E1],"tree_param":{"num_deleted":"0","num_feature":"26","num_nodes":"23","size_leaf_vector":"1"}},{"base_weights":[-4.8424783E-1,-1.671911E-2,5.4581475E-1,-2.113225E-1,2.0885189E0,9.870622E-1,-5.025389E-1,-2.5204174E-2,2.454317E0,-1.0652897E-2,6.0143158E-2,-1.6425075E-2,-7.898258E-3,-1.3229531E-2,2.002507E-2,8.15898E-2,3.6449824E-2],"categories":[],"categories_nodes":[],"categories_segments":[],"categories_sizes":[],"default_left":[0,0,0,0,0,0,0,0,0,0,0,0,0,0,0,0,0],"id":44,"left_children":[1,-1,3,5,7,9,11,13,15,-1,-1,-1,-1,-1,-1,-1,-1],"loss_changes":[1.3160675E2,0E0,1.3600377E2,2.7982285E1,2.967546E1,2.2204533E1,5.446453E-1,2.2068233E0,7.4357605E0,0E0,0E0,0E0,0E0,0E0,0E0,0E0,0E0],"parents":[2147483647,0,0,2,2,3,3,4,4,5,5,6,6,7,7,8,8],"right_children":[2,-1,4,6,8,10,12,14,16,-1,-1,-1,-1,-1,-1,-1,-1],"split_conditions":[1E0,-1.671911E-2,4E0,5E-1,4.1255783E1,4.2902042E1,2E0,8E0,1E0,-1.0652897E-2,6.0143158E-2,-1.6425075E-2,-7.898258E-3,-1.3229531E-2,2.002507E-2,8.15898E-2,3.6449824E-2],"split_indices":[18,0,13,13,4,4,13,23,16,0,0,0,0,0,0,0,0],"split_type":[0,0,0,0,0,0,0,0,0,0,0,0,0,0,0,0,0],"sum_hessian":[1.7438357E3,1.6287759E3,1.1505985E2,7.7759575E1,3.7300274E1,1.4734829E1,6.3024746E1,5.640187E0,3.1660088E1,6.635281E0,8.099547E0,5.197E1,1.1054746E1,3.7517061E0,1.8884808E0,2.5093098E1,6.566989E0],"tree_param":{"num_deleted":"0","num_feature":"26","num_nodes":"17","size_leaf_vector":"1"}},{"base_weights":[2.30545E0,3.6096415E-1,2.4470987E0,2.366243E0,-4.6966702E-1,2.5158386E0,8.2574064E-1,2.4425714E0,4.2294967E-4,6.1590597E-2,-5.378046E-1,2.580399E0,9.073913E-1,2.4229918E0,-4.9508098E-1,7.6787084E-2,1.9317599E-2,-1.636234E-2,-1.6613037E-3,7.868559E-2,3.644248E-2,7.568581E-2,-1.0307916E-2,7.477115E-2,-9.099289E-3,-1.5349093E-2,6.285822E-3],"categories":[],"categories_nodes":[],"categories_segments":[],"categories_sizes":[],"default_left":[0,0,0,0,0,0,0,0,0,0,0,0,0,0,0,0,0,0,0,0,0,0,0,0,0,0,0],"id":45,"left_children":[1,3,5,7,9,11,13,15,-1,-1,17,19,21,23,25,-1,-1,-1,-1,-1,-1,-1,-1,-1,-1,-1,-1],"loss_changes":[7.352207E2,3.0532095E2,2.755371E2,9.599396E0,2.3445992E1,2.4574414E2,2.1807181E2,9.287781E0,0E0,0E0,4.3714142E-1,1.2995215E2,1.9030069E2,9.589264E0,7.73263E-1,0E0,0E0,0E0,0E0,0E0,0E0,0E0,0E0,0E0,0E0,0E0,0E0],"parents":[2147483647,0,0,1,1,2,2,3,3,4,4,5,5,6,6,7,7,10,10,11,11,12,12,13,13,14,14],"right_children":[2,4,6,8,10,12,14,16,-1,-1,18,20,22,24,26,-1,-1,-1,-1,-1,-1,-1,-1,-1,-1,-1,-1],"split_conditions":[3.9354474E2,1E0,1E0,1.9010712E2,1E0,1.852591E2,4.2902042E1,4.703413E1,4.2294967E-4,6.1590597E-2,2E0,1.2149161E2,1E0,1.9079745E2,1.09E2,7.6787084E-2,1.9317599E-2,-1.636234E-2,-1.6613037E-3,7.868559E-2,3.644248E-2,7.568581E-2,-1.0307916E-2,7.477115E-2,-9.099289E-3,-1.5349093E-2,6.285822E-3],"split_indices":[2,16,18,1,15,1,4,4,0,0,14,3,14,1,10,0,0,0,0,0,0,0,0,0,0,0,0],"split_type":[0,0,0,0,0,0,0,0,0,0,0,0,0,0,0,0,0,0,0,0,0,0,0,0,0,0,0],"sum_hessian":[2.6715217E3,1.8163751E2,2.489884E3,5.26597E1,1.2897781E2,2.3880857E3,1.0179844E2,5.0967335E1,1.6923641E0,2.6259425E0,1.2635187E2,2.2953499E3,9.273581E1,4.569982E1,5.6098618E1,4.74573E1,3.510036E0,1.2426199E2,2.089877E0,2.225253E3,7.009685E1,4.002835E1,5.2707462E1,4.4649372E1,1.0504478E0,5.5078373E1,1.0202463E0],"tree_param":{"num_deleted":"0","num_feature":"26","num_nodes":"27","size_leaf_vector":"1"}},{"base_weights":[-4.5411286E-1,-5.5490524E-1,8.683266E-1,-1.6684204E-2,-2.3685543E-1,1.912519E0,-1.638186E-2,2.0509256E-2,-1.4292198E-2,-2.931961E-1,2.383737E0,-1.52341025E-2,1.675893E-2,7.41214E-2,2.829966E-2],"categories":[],"categories_nodes":[],"categories_segments":[],"categories_sizes":[],"default_left":[0,0,0,0,0,0,0,0,0,0,0,0,0,0,0],"id":46,"left_children":[1,3,5,-1,7,9,-1,-1,-1,11,13,-1,-1,-1,-1],"loss_changes":[2.3054926E2,4.9847412E-1,1.8215164E2,0E0,2.0781684E0,7.425314E1,0E0,0E0,0E0,2.723741E0,4.9883423E0,0E0,0E0,0E0,0E0],"parents":[2147483647,0,0,1,1,2,2,4,4,5,5,9,9,10,10],"right_children":[2,4,6,-1,8,10,-1,-1,-1,12,14,-1,-1,-1,-1],"split_conditions":[1.838359E2,1.813328E2,1.0416666E0,-1.6684204E-2,4.2916665E0,1E0,-1.638186E-2,2.0509256E-2,-1.4292198E-2,2E0,1.2149161E2,-1.52341025E-2,1.675893E-2,7.41214E-2,2.829966E-2],"split_indices":[1,1,9,0,9,9,0,0,0,14,3,0,0,0,0],"split_type":[0,0,0,0,0,0,0,0,0,0,0,0,0,0,0],"sum_hessian":[1.7250431E3,1.603416E3,1.2162718E2,1.5964685E3,6.947516E0,6.9767876E1,5.185931E1,1.0518483E0,5.8956676E0,1.2347677E1,5.7420197E1,1.0185446E1,2.1622314E0,5.347589E1,3.944303E0],"tree_param":{"num_deleted":"0","num_feature":"26","num_nodes":"15","size_leaf_vector":"1"}},{"base_weights":[-4.0337062E-1,8.137752E-1,-5.554848E-1,1.942088E0,-1.650969E-2,-3.561649E-1,-1.6683891E-2,-1.5737383E-2,2.3955634E0,-1.4197575E-2,5.6142723E-3,7.5518966E-2,3.986277E-2],"categories":[],"categories_nodes":[],"categories_segments":[],"categories_sizes":[],"default_left":[0,0,0,0,0,0,0,0,0,0,0,0,0],"id":47,"left_children":[1,3,5,7,-1,9,-1,-1,11,-1,-1,-1,-1],"loss_changes":[3.221258E2,2.9876553E2,5.187988E-4,1.1991388E2,0E0,5.8248276E-1,0E0,0E0,8.31543E0,0E0,0E0,0E0,0E0],"parents":[2147483647,0,0,1,1,2,2,3,3,5,5,8,8],"right_children":[2,4,6,8,-1,10,-1,-1,12,-1,-1,-1,-1],"split_conditions":[3.9354474E2,1.2083334E0,4.0817358E2,1E0,-1.650969E-2,1.2E1,-1.6683891E-2,-1.5737383E-2,1E0,-1.4197575E-2,5.6142723E-3,7.5518966E-2,3.986277E-2],"split_indices":[2,11,2,11,0,21,0,0,18,0,0,0,0],"split_type":[0,0,0,0,0,0,0,0,0,0,0,0,0],"sum_hessian":[1.7364143E3,1.9241893E2,1.5439954E3,1.0507911E2,8.733982E1,6.7642145E0,1.5372312E3,1.6293613E1,8.878549E1,5.671004E0,1.0932108E0,7.8471275E1,1.0314217E1],"tree_param":{"num_deleted":"0","num_feature":"26","num_nodes":"13","size_leaf_vector":"1"}},{"base_weights":[-4.8626968E-1,-5.543102E-1,7.683629E-1,-1.6684024E-2,-1.1530727E-1,1.946642E0,-1.633732E-2,5.8948463E-1,-1.3879399E-2,-1.4784748E-2,2.4217677E0,3.4355678E-2,-8.46822E-3,2.3295116E-2,7.520446E-2],"categories":[],"categories_nodes":[],"categories_segments":[],"categories_sizes":[],"default_left":[0,0,0,0,0,0,0,0,0,0,0,0,0,0,0],"id":48,"left_children":[1,3,5,-1,7,9,-1,11,-1,-1,13,-1,-1,-1,-1],"loss_changes":[1.471633E2,1.2418823E0,1.3850175E2,0E0,2.2335763E0,5.5717117E1,0E0,1.8172929E0,0E0,0E0,3.5864105E0,0E0,0E0,0E0,0E0],"parents":[2147483647,0,0,1,1,2,2,4,4,5,5,7,7,10,10],"right_children":[2,4,6,-1,8,10,-1,12,-1,-1,14,-1,-1,-1,-1],"split_conditions":[1.2149161E2,1.19165146E2,1.25E0,-1.6684024E-2,1.6750053E2,2.5E-1,-1.633732E-2,1.25E0,-1.3879399E-2,-1.4784748E-2,3.7085626E2,3.4355678E-2,-8.46822E-3,2.3295116E-2,7.520446E-2],"split_indices":[3,3,12,0,1,12,0,12,0,0,2,0,0,0,0],"split_type":[0,0,0,0,0,0,0,0,0,0,0,0,0,0,0],"sum_hessian":[1.7179235E3,1.6300801E3,8.7843414E1,1.6230701E3,7.009957E0,4.604149E1,4.1801926E1,2.0840447E0,4.925912E0,7.499434E0,3.8542053E1,1.081186E0,1.0028586E0,2.3923213E0,3.614973E1],"tree_param":{"num_deleted":"0","num_feature":"26","num_nodes":"15","size_leaf_vector":"1"}},{"base_weights":[-4.4909918E-1,-1.6683813E-2,9.249855E-1,1.6172986E0,-1.6292667E-2,-4.6593386E-1,2.1031466E0,-1.5662473E-2,4.597059E-3,-1.3854951E-2,6.905381E-2],"categories":[],"categories_nodes":[],"categories_segments":[],"categories_sizes":[],"default_left":[0,0,0,0,0,0,0,0,0,0,0],"id":49,"left_children":[1,-1,3,5,-1,7,9,-1,-1,-1,-1],"loss_changes":[2.5457614E2,0E0,1.2813852E2,8.735286E1,0E0,6.6952276E-1,3.6414032E1,0E0,0E0,0E0,0E0],"parents":[2147483647,0,0,2,2,3,3,5,5,6,6],"right_children":[2,-1,4,6,-1,8,10,-1,-1,-1,-1],"split_conditions":[1E0,-1.6683813E-2,1.75E0,1E0,-1.6292667E-2,8.775E1,4.1321953E1,-1.5662473E-2,4.597059E-3,-1.3854951E-2,6.905381E-2],"split_indices":[18,0,13,13,0,10,4,0,0,0,0],"split_type":[0,0,0,0,0,0,0,0,0,0,0],"sum_hessian":[1.7265417E3,1.6023309E3,1.2421083E2,8.4337425E1,3.9873405E1,1.5957106E1,6.8380325E1,1.4774134E1,1.1829721E0,4.8198853E0,6.3560436E1],"tree_param":{"num_deleted":"0","num_feature":"26","num_nodes":"11","size_leaf_vector":"1"}},{"base_weights":[-4.6754846E-1,-5.3896874E-1,5.884506E-1,-1.6683785E-2,-3.090632E-1,-2.0572114E-1,1.2227048E0,-4.8268E-1,2.6150414E-1,6.373269E-1,-1.6219601E-2,-1.6090345E-2,2.5464325E0,1.988986E-3,-1.648428E-2,-1.4392543E-3,2.0482894E-2,4.1174132E-2,-9.6424326E-4,-8.972913E-3,7.922878E-2],"categories":[],"categories_nodes":[],"categories_segments":[],"categories_sizes":[],"default_left":[0,0,0,0,0,0,0,0,0,0,0,0,0,0,0,0,0,0,0,0,0],"id":50,"left_children":[1,3,5,-1,7,9,11,13,15,17,-1,-1,19,-1,-1,-1,-1,-1,-1,-1,-1],"loss_changes":[1.3026282E2,6.1960754E0,5.5470547E1,0E0,1.1454713E1,1.4330673E1,1.4362138E2,3.2645016E0,3.595602E0,7.2012024E0,0E0,0E0,1.0213348E1,0E0,0E0,0E0,0E0,0E0,0E0,0E0,0E0],"parents":[2147483647,0,0,1,1,2,2,4,4,5,5,6,6,7,7,8,8,9,9,12,12],"right_children":[2,4,6,-1,8,10,12,14,16,18,-1,-1,20,-1,-1,-1,-1,-1,-1,-1,-1],"split_conditions":[1.852591E2,1E0,1.2083334E0,-1.6683785E-2,2.2916667E0,1E0,1E0,1.6666667E-1,4.5E1,8.333333E-1,-1.6219601E-2,-1.6090345E-2,2.2E1,1.988986E-3,-1.648428E-2,-1.4392543E-3,2.0482894E-2,4.1174132E-2,-9.6424326E-4,-8.972913E-3,7.922878E-2],"split_indices":[1,14,9,0,9,9,14,9,7,12,0,0,5,0,0,0,0,0,0,0,0],"split_type":[0,0,0,0,0,0,0,0,0,0,0,0,0,0,0,0,0,0,0,0,0],"sum_hessian":[1.7219668E3,1.6133416E3,1.0862533E2,1.4999817E3,1.133598E2,4.8532166E1,6.0093166E1,8.7031265E1,2.6328533E1,1.3542326E1,3.4989838E1,2.605909E1,3.4034077E1,9.441487E0,7.758978E1,1.5688811E1,1.0639722E1,5.9540663E0,7.58826E0,1.0246639E0,3.300941E1],"tree_param":{"num_deleted":"0","num_feature":"26","num_nodes":"21","size_leaf_vector":"1"}},{"base_weights":[-3.300971E-1,1.1730213E0,-5.2802366E-1,2.4087467E0,4.9559823E-1,-5.4443866E-1,-3.0756316E-1,-1.29137E-2,2.5540698E0,-1.639313E-2,1.2529067E0,-1.668304E-2,-3.2468358E-1,-4.5693013E-1,2.046701E-1,7.7243604E-2,2.7114393E-2,-1.6235396E-2,7.248321E-2,-1.49335405E-2,1.0297043E-2,-1.437272E-2,1.71579E-2,3.6434244E-2,-3.9643226E-3],"categories":[],"categories_nodes":[],"categories_segments":[],"categories_sizes":[],"default_left":[0,0,0,0,0,0,0,0,0,0,0,0,0,0,0,0,0,0,0,0,0,0,0,0,0],"id":51,"left_children":[1,3,5,7,9,11,13,-1,15,-1,17,-1,19,21,23,-1,-1,-1,-1,-1,-1,-1,-1,-1,-1],"loss_changes":[5.2233167E2,1.698724E2,5.4427185E0,3.0848083E1,1.05840614E2,3.513977E0,8.488915E0,0E0,2.2766113E-2,0E0,1.6298544E2,0E0,8.848099E0,2.21805E0,8.821074E0,0E0,0E0,0E0,0E0,0E0,0E0,0E0,0E0,0E0,0E0],"parents":[2147483647,0,0,1,1,2,2,3,3,4,4,5,5,6,6,8,8,10,10,12,12,13,13,14,14],"right_children":[2,4,6,8,10,12,14,-1,16,-1,18,-1,20,22,24,-1,-1,-1,-1,-1,-1,-1,-1,-1,-1],"split_conditions":[3.9354474E2,5.833333E-1,1E0,1E0,1.0416666E0,1E0,7.9166665E0,-1.29137E-2,2.53E2,-1.639313E-2,1E0,-1.668304E-2,9E0,2E0,1.6746405E2,7.7243604E-2,2.7114393E-2,-1.6235396E-2,7.248321E-2,-1.49335405E-2,1.0297043E-2,-1.437272E-2,1.71579E-2,3.6434244E-2,-3.9643226E-3],"split_indices":[2,10,15,15,10,16,10,0,5,0,15,0,11,16,1,0,0,0,0,0,0,0,0,0,0],"split_type":[0,0,0,0,0,0,0,0,0,0,0,0,0,0,0,0,0,0,0,0,0,0,0,0,0],"sum_hessian":[1.752613E3,2.0335359E2,1.5492594E3,7.110013E1,1.3225346E2,1.4405311E3,1.08728325E2,3.3664813E0,6.773364E1,5.578006E1,7.6473404E1,1.3664797E3,7.4051346E1,8.426473E1,2.446359E1,6.634057E1,1.3930717E0,3.0289894E1,4.6183506E1,5.9012177E1,1.5039172E1,8.301111E1,1.2536229E0,5.467044E0,1.8996548E1],"tree_param":{"num_deleted":"0","num_feature":"26","num_nodes":"25","size_leaf_vector":"1"}},{"base_weights":[-4.9585372E-1,-5.48825E-1,4.4490188E-1,-5.5003387E-1,8.986366E-2,-5.1588535E-1,1.0429558E0,-1.6683593E-2,-4.4062233E-1,2.0742556E-2,-1.0971738E-2,-1.6267046E-2,-1.044942E-1,-1.2893371E-1,2.389179E0,-1.6025944E-2,-3.8258457E-3,6.5099066E-3,-9.870885E-3,5.5881985E-2,-1.4949793E-2,2.1181218E-2,7.6218374E-2],"categories":[],"categories_nodes":[],"categories_segments":[],"categories_sizes":[],"default_left":[0,0,0,0,0,0,0,0,0,0,0,0,0,0,0,0,0,0,0,0,0,0,0],"id":52,"left_children":[1,3,5,7,9,11,13,-1,15,-1,-1,-1,17,19,21,-1,-1,-1,-1,-1,-1,-1,-1],"loss_changes":[8.5792114E1,1.304596E0,5.343695E1,8.354492E-1,1.3301156E0,3.33457E-1,9.03477E1,0E0,2.5780678E0,0E0,0E0,0E0,3.1719452E-1,2.4074255E1,4.989197E0,0E0,0E0,0E0,0E0,0E0,0E0,0E0,0E0],"parents":[2147483647,0,0,1,1,2,2,3,3,4,4,5,5,6,6,8,8,12,12,13,13,14,14],"right_children":[2,4,6,8,10,12,14,-1,16,-1,-1,-1,18,20,22,-1,-1,-1,-1,-1,-1,-1,-1],"split_conditions":[1.19165146E2,2E0,1E0,1E0,1.4E1,1.28E2,2.375E0,-1.6683593E-2,2.375E0,2.0742556E-2,-1.0971738E-2,-1.6267046E-2,1.6666667E-1,2.5E-1,3.8756802E2,-1.6025944E-2,-3.8258457E-3,6.5099066E-3,-9.870885E-3,5.5881985E-2,-1.4949793E-2,2.1181218E-2,7.6218374E-2],"split_indices":[3,17,17,17,13,5,12,0,12,0,0,0,11,12,2,0,0,0,0,0,0,0,0],"split_type":[0,0,0,0,0,0,0,0,0,0,0,0,0,0,0,0,0,0,0,0,0,0,0],"sum_hessian":[1.7156923E3,1.6246306E3,9.106173E1,1.6217E3,2.9306772E0,3.4988808E1,5.6072926E1,1.5323801E3,8.9319824E1,1.0399272E0,1.8907499E0,3.258377E1,2.4050348E0,3.0460894E1,2.5612032E1,6.8223404E1,2.1096418E1,1.0027969E0,1.4022379E0,4.133184E0,2.632771E1,2.5815272E0,2.3030506E1],"tree_param":{"num_deleted":"0","num_feature":"26","num_nodes":"23","size_leaf_vector":"1"}},{"base_weights":[-4.8229074E-1,-1.6683813E-2,5.3100896E-1,-2.0882112E-1,1.9602637E0,9.499094E-1,-5.007227E-1,-2.2834243E-2,2.2836294E0,-1.05766505E-2,5.657294E-2,-1.5896639E-2,-4.6647117E-3,-1.3164424E-2,1.9662196E-2,3.1048328E-2,7.463511E-2],"categories":[],"categories_nodes":[],"categories_segments":[],"categories_sizes":[],"default_left":[0,0,0,0,0,0,0,0,0,0,0,0,0,0,0,0,0],"id":53,"left_children":[1,-1,3,5,7,9,11,13,15,-1,-1,-1,-1,-1,-1,-1,-1],"loss_changes":[1.2895578E2,0E0,1.2444969E2,2.6925396E1,2.5771423E1,2.0265923E1,5.531359E-1,2.1533854E0,6.220871E0,0E0,0E0,0E0,0E0,0E0,0E0,0E0,0E0],"parents":[2147483647,0,0,2,2,3,3,4,4,5,5,6,6,7,7,8,8],"right_children":[2,-1,4,6,8,10,12,14,16,-1,-1,-1,-1,-1,-1,-1,-1],"split_conditions":[1E0,-1.6683813E-2,4E0,5E-1,4.1255783E1,4.2902042E1,5.1191185E1,8E0,3.786439E2,-1.05766505E-2,5.657294E-2,-1.5896639E-2,-4.6647117E-3,-1.3164424E-2,1.9662196E-2,3.1048328E-2,7.463511E-2],"split_indices":[18,0,13,13,4,4,4,23,2,0,0,0,0,0,0,0,0],"split_type":[0,0,0,0,0,0,0,0,0,0,0,0,0,0,0,0,0],"sum_hessian":[1.7186372E3,1.6023309E3,1.16306305E2,7.719927E1,3.9107033E1,1.5080724E1,6.211855E1,5.6130986E0,3.3493935E1,6.565941E0,8.514783E0,5.6786354E1,5.332196E0,3.6980283E0,1.9150705E0,5.560539E0,2.7933395E1],"tree_param":{"num_deleted":"0","num_feature":"26","num_nodes":"17","size_leaf_vector":"1"}},{"base_weights":[2.1501713E0,2.409206E-1,2.267683E0,2.156394E0,-4.847886E-1,2.3274786E0,7.938549E-1,2.2317202E0,1.1343806E-3,5.394651E-2,-5.4219157E-1,2.3833978E0,8.7674993E-1,2.2542477E0,-4.9352187E-1,6.921606E-2,1.7914382E-3,-6.6462774E-3,-1.6515061E-2,7.264245E-2,3.4042176E-2,7.039764E-2,-1.0248794E-2,6.947037E-2,-9.044293E-3,-1.5306108E-2,6.2009087E-3],"categories":[],"categories_nodes":[],"categories_segments":[],"categories_sizes":[],"default_left":[0,0,0,0,0,0,0,0,0,0,0,0,0,0,0,0,0,0,0,0,0,0,0,0,0,0,0],"id":54,"left_children":[1,3,5,7,9,11,13,15,-1,-1,17,19,21,23,25,-1,-1,-1,-1,-1,-1,-1,-1,-1,-1,-1,-1],"loss_changes":[6.3038574E2,2.2925018E2,2.3160156E2,7.143387E0,1.6684856E1,2.0438477E2,1.9814651E2,7.0298004E0,0E0,0E0,1.9169617E-1,1.1355957E2,1.7280208E2,8.435242E0,7.65666E-1,0E0,0E0,0E0,0E0,0E0,0E0,0E0,0E0,0E0,0E0,0E0,0E0],"parents":[2147483647,0,0,1,1,2,2,3,3,4,4,5,5,6,6,7,7,10,10,11,11,12,12,13,13,14,14],"right_children":[2,4,6,8,10,12,14,16,-1,-1,18,20,22,24,26,-1,-1,-1,-1,-1,-1,-1,-1,-1,-1,-1,-1],"split_conditions":[3.8509454E2,1E0,1E0,1.2379192E2,1E0,1.852591E2,4.2902042E1,1.9010712E2,1.1343806E-3,5.394651E-2,2E0,1.2149161E2,1E0,1.9079745E2,1.09E2,6.921606E-2,1.7914382E-3,-6.6462774E-3,-1.6515061E-2,7.264245E-2,3.4042176E-2,7.039764E-2,-1.0248794E-2,6.947037E-2,-9.044293E-3,-1.5306108E-2,6.2009087E-3],"split_indices":[2,16,18,3,15,1,4,1,0,0,8,3,14,1,10,0,0,0,0,0,0,0,0,0,0,0,0],"split_type":[0,0,0,0,0,0,0,0,0,0,0,0,0,0,0,0,0,0,0,0,0,0,0,0,0,0,0],"sum_hessian":[2.8111477E3,1.6316704E2,2.6479805E3,4.42912E1,1.1887585E2,2.5441794E3,1.0380109E2,4.2718925E1,1.5722742E0,2.1718473E0,1.16704E2,2.4491335E3,9.504584E1,4.82807E1,5.552039E1,4.1224056E1,1.4948665E0,3.6470191E0,1.1305698E2,2.375858E3,7.327581E1,4.265783E1,5.238801E1,4.723915E1,1.0415502E0,5.449352E1,1.0268682E0],"tree_param":{"num_deleted":"0","num_feature":"26","num_nodes":"27","size_leaf_vector":"1"}},{"base_weights":[-4.5197284E-1,-5.537278E-1,8.3870906E-1,-1.6649438E-2,-2.3326778E-1,1.8030924E0,-1.6343288E-2,2.0252442E-2,-1.4234531E-2,-3.5599688E-1,2.2121232E0,-1.5190358E-2,1.2974346E-2,6.816373E-2,1.9443044E-2],"categories":[],"categories_nodes":[],"categories_segments":[],"categories_sizes":[],"default_left":[0,0,0,0,0,0,0,0,0,0,0,0,0,0,0],"id":55,"left_children":[1,3,5,-1,7,9,-1,-1,-1,11,13,-1,-1,-1,-1],"loss_changes":[2.2398636E2,5.045166E-1,1.6745227E2,0E0,2.0456266E0,6.592151E1,0E0,0E0,0E0,1.7136387E0,4.359314E0,0E0,0E0,0E0,0E0],"parents":[2147483647,0,0,1,1,2,2,4,4,5,5,9,9,10,10],"right_children":[2,4,6,-1,8,10,-1,-1,-1,12,14,-1,-1,-1,-1],"split_conditions":[1.838359E2,1.813328E2,1.0416666E0,-1.6649438E-2,4.2916665E0,8.75E-1,-1.6343288E-2,2.0252442E-2,-1.4234531E-2,2E0,4.9559647E1,-1.5190358E-2,1.2974346E-2,6.816373E-2,1.9443044E-2],"split_indices":[1,1,9,0,9,9,0,0,0,14,4,0,0,0,0],"split_type":[0,0,0,0,0,0,0,0,0,0,0,0,0,0,0],"sum_hessian":[1.7009441E3,1.5771737E3,1.2377045E2,1.5702994E3,6.8742175E0,7.275322E1,5.101723E1,1.0650198E0,5.809198E0,1.1608235E1,6.114498E1,1.0049743E1,1.558493E0,5.84499E1,2.6950805E0],"tree_param":{"num_deleted":"0","num_feature":"26","num_nodes":"15","size_leaf_vector":"1"}},{"base_weights":[-4.0098315E-1,7.862108E-1,-5.543152E-1,1.8284267E0,-1.6473532E-2,-3.5343853E-1,-1.6649082E-2,-1.5692823E-2,2.232745E0,5.6310957E-3,-1.4144414E-2,7.0148274E-2,3.8311087E-2],"categories":[],"categories_nodes":[],"categories_segments":[],"categories_sizes":[],"default_left":[0,0,0,0,0,0,0,0,0,0,0,0,0],"id":56,"left_children":[1,3,5,7,-1,9,-1,-1,11,-1,-1,-1,-1],"loss_changes":[3.1267902E2,2.7462936E2,3.5705566E-3,1.063761E2,0E0,5.7950103E-1,0E0,0E0,6.556183E0,0E0,0E0,0E0,0E0],"parents":[2147483647,0,0,1,1,2,2,3,3,5,5,8,8],"right_children":[2,4,6,8,-1,10,-1,-1,12,-1,-1,-1,-1],"split_conditions":[3.9354474E2,1.2083334E0,4.0817358E2,1E0,-1.6473532E-2,3.9231297E1,-1.6649082E-2,-1.5692823E-2,1E0,5.6310957E-3,-1.4144414E-2,7.0148274E-2,3.8311087E-2],"split_indices":[2,11,2,11,0,4,0,0,18,0,0,0,0],"split_type":[0,0,0,0,0,0,0,0,0,0,0,0,0],"sum_hessian":[1.714293E3,1.956122E2,1.5186808E3,1.0965661E2,8.59556E1,6.686638E0,1.5119941E3,1.6044985E1,9.3611626E1,1.091718E0,5.59492E0,8.299999E1,1.0611631E1],"tree_param":{"num_deleted":"0","num_feature":"26","num_nodes":"13","size_leaf_vector":"1"}},{"base_weights":[-4.8435864E-1,-5.531211E-1,7.443024E-1,-1.6649175E-2,-1.1128115E-1,1.8407544E0,-1.6305353E-2,5.828941E-1,-1.3812345E-2,-1.4744157E-2,2.2691257E0,5.703896E-3,2.0859476E-2,7.155293E-2,3.3235025E-2],"categories":[],"categories_nodes":[],"categories_segments":[],"categories_sizes":[],"default_left":[0,0,0,0,0,0,0,0,0,0,0,0,0,0,0],"id":57,"left_children":[1,3,5,-1,7,9,-1,11,-1,-1,13,-1,-1,-1,-1],"loss_changes":[1.4349231E2,1.2506409E0,1.2834128E2,0E0,2.1939936E0,5.000769E1,0E0,4.686713E-3,0E0,0E0,2.9498749E0,0E0,0E0,0E0,0E0],"parents":[2147483647,0,0,1,1,2,2,4,4,5,5,7,7,10,10],"right_children":[2,4,6,-1,8,10,-1,12,-1,-1,14,-1,-1,-1,-1],"split_conditions":[1.2149161E2,1.19165146E2,1.25E0,-1.6649175E-2,1.6750053E2,2.5E-1,-1.6305353E-2,4.3753784E2,-1.3812345E-2,-1.4744157E-2,1E0,5.703896E-3,2.0859476E-2,7.155293E-2,3.3235025E-2],"split_indices":[3,3,12,0,1,12,0,2,0,0,15,0,0,0,0],"split_type":[0,0,0,0,0,0,0,0,0,0,0,0,0,0,0],"sum_hessian":[1.6925472E3,1.6033641E3,8.918304E1,1.5964188E3,6.945375E0,4.793854E1,4.1244495E1,2.10013E0,4.845245E0,7.4159284E0,4.0522614E1,1.066245E0,1.0338852E0,3.588512E1,4.6374946E0],"tree_param":{"num_deleted":"0","num_feature":"26","num_nodes":"15","size_leaf_vector":"1"}},{"base_weights":[-4.4693217E-1,-1.6648991E-2,8.906979E-1,1.5323347E0,-1.6253829E-2,-4.639402E-1,1.971131E0,-1.5621407E-2,4.6480754E-3,-1.3798421E-2,6.444036E-2],"categories":[],"categories_nodes":[],"categories_segments":[],"categories_sizes":[],"default_left":[0,0,0,0,0,0,0,0,0,0,0],"id":58,"left_children":[1,-1,3,5,-1,7,9,-1,-1,-1,-1],"loss_changes":[2.4669751E2,0E0,1.1820615E2,7.840021E1,0E0,6.691828E-1,3.22536E1,0E0,0E0,0E0,0E0],"parents":[2147483647,0,0,2,2,3,3,5,5,6,6],"right_children":[2,-1,4,6,-1,8,10,-1,-1,-1,-1],"split_conditions":[1E0,-1.6648991E-2,1.75E0,1E0,-1.6253829E-2,9E1,4.1321953E1,-1.5621407E-2,4.6480754E-3,-1.3798421E-2,6.444036E-2],"split_indices":[18,0,13,13,0,0,4,0,0,0,0],"split_type":[0,0,0,0,0,0,0,0,0,0,0],"sum_hessian":[1.7027118E3,1.5760098E3,1.2670197E2,8.7458275E1,3.9243694E1,1.574953E1,7.170875E1,1.4571417E1,1.178113E0,4.755004E0,6.695374E1],"tree_param":{"num_deleted":"0","num_feature":"26","num_nodes":"11","size_leaf_vector":"1"}},{"base_weights":[-4.6547878E-1,-5.3756475E-1,5.7228565E-1,-1.664904E-2,-3.0577168E-1,-2.0265146E-1,1.1707661E0,-4.80588E-1,2.588383E-1,6.184678E-1,-1.6176801E-2,-1.6049968E-2,2.3682966E0,2.0124998E-3,-1.6447088E-2,-1.3701287E-3,1.9995557E-2,5.1244567E-3,5.1337253E-2,-9.003395E-3,7.359038E-2],"categories":[],"categories_nodes":[],"categories_segments":[],"categories_sizes":[],"default_left":[0,0,0,0,0,0,0,0,0,0,0,0,0,0,0,0,0,0,0,0,0],"id":59,"left_children":[1,3,5,-1,7,9,11,13,15,17,-1,-1,19,-1,-1,-1,-1,-1,-1,-1,-1],"loss_changes":[1.2736124E2,6.238617E0,5.1623028E1,0E0,1.1294674E1,1.3912353E1,1.2926999E2,3.2513218E0,3.432677E0,6.9232464E0,0E0,0E0,9.100449E0,0E0,0E0,0E0,0E0,0E0,0E0,0E0,0E0],"parents":[2147483647,0,0,1,1,2,2,4,4,5,5,6,6,7,7,8,8,9,9,12,12],"right_children":[2,4,6,-1,8,10,12,14,16,18,-1,-1,20,-1,-1,-1,-1,-1,-1,-1,-1],"split_conditions":[1.852591E2,1E0,1.2083334E0,-1.664904E-2,2.2916667E0,1E0,1E0,1.6666667E-1,4.5E1,1.06E2,-1.6176801E-2,-1.6049968E-2,2.2E1,2.0124998E-3,-1.6447088E-2,-1.3701287E-3,1.9995557E-2,5.1244567E-3,5.1337253E-2,-9.003395E-3,7.359038E-2],"split_indices":[1,14,9,0,9,9,14,9,7,7,0,0,5,0,0,0,0,0,0,0,0],"split_type":[0,0,0,0,0,0,0,0,0,0,0,0,0,0,0,0,0,0,0,0,0],"sum_hessian":[1.69739E3,1.5875934E3,1.097966E2,1.4754229E3,1.1217057E2,4.8133175E1,6.166343E1,8.576466E1,2.6405912E1,1.375021E1,3.4382965E1,2.566269E1,3.6000736E1,9.429885E0,7.633478E1,1.5623901E1,1.078201E1,1.0574642E1,3.1755672E0,1.0295347E0,3.4971203E1],"tree_param":{"num_deleted":"0","num_feature":"26","num_nodes":"21","size_leaf_vector":"1"}},{"base_weights":[-3.274843E-1,1.1235033E0,-5.264692E-1,2.2433145E0,4.8224148E-1,-5.4311186E-1,-3.0416474E-1,-1.2856242E-2,7.114336E-2,-1.6353562E-2,1.1965027E0,-1.6648324E-2,-3.2143638E-1,-4.545173E-1,2.0383783E-1,-1.6159452E-2,6.7551225E-2,-1.4876169E-2,1.0164269E-2,1.6879557E-2,-1.4312625E-2,3.5281118E-2,-3.8762654E-3],"categories":[],"categories_nodes":[],"categories_segments":[],"categories_sizes":[],"default_left":[0,0,0,0,0,0,0,0,0,0,0,0,0,0,0,0,0,0,0,0,0,0,0],"id":60,"left_children":[1,3,5,7,9,11,13,-1,-1,-1,15,-1,17,19,21,-1,-1,-1,-1,-1,-1,-1,-1],"loss_changes":[5.0136194E2,1.4935022E2,5.480316E0,2.7037262E1,9.933489E1,3.5419617E0,8.3839655E0,0E0,0E0,0E0,1.4703189E2,0E0,8.719275E0,2.1985474E0,8.402576E0,0E0,0E0,0E0,0E0,0E0,0E0,0E0,0E0],"parents":[2147483647,0,0,1,1,2,2,3,3,4,4,5,5,6,6,10,10,12,12,13,13,14,14],"right_children":[2,4,6,8,10,12,14,-1,-1,-1,16,-1,18,20,22,-1,-1,-1,-1,-1,-1,-1,-1],"split_conditions":[3.9354474E2,5.833333E-1,1E0,1E0,1.0416666E0,1E0,7.9166665E0,-1.2856242E-2,7.114336E-2,-1.6353562E-2,1E0,-1.6648324E-2,9E0,4.1733353E2,1.6746405E2,-1.6159452E-2,6.7551225E-2,-1.4876169E-2,1.0164269E-2,1.6879557E-2,-1.4312625E-2,3.5281118E-2,-3.8762654E-3],"split_indices":[2,10,15,15,10,16,10,0,0,0,16,0,11,2,1,0,0,0,0,0,0,0,0],"split_type":[0,0,0,0,0,0,0,0,0,0,0,0,0,0,0,0,0,0,0,0,0,0,0],"sum_hessian":[1.7334226E3,2.0848853E2,1.5249341E3,7.50075E1,1.3348102E2,1.4173799E3,1.0755422E2,3.3251495E0,7.168235E1,5.4839394E1,7.864163E1,1.3441311E3,7.324877E1,8.307265E1,2.4481571E1,2.9924347E1,4.871728E1,5.8137802E1,1.511097E1,1.2838631E0,8.178879E1,5.6008716E0,1.8880701E1],"tree_param":{"num_deleted":"0","num_feature":"26","num_nodes":"23","size_leaf_vector":"1"}},{"base_weights":[-4.9400344E-1,-5.4755586E-1,4.3533373E-1,-5.4878265E-1,9.1388345E-2,-5.148709E-1,1.0120654E0,-1.6648762E-2,-4.380949E-1,2.0474637E-2,-1.0909352E-2,-1.6241748E-2,-1.0480355E-1,-1.24180235E-1,2.2435122E0,-1.5982224E-2,-3.7368922E-3,6.451338E-3,-9.86059E-3,5.3266536E-2,-1.4878208E-2,2.0712567E-2,7.132137E-2],"categories":[],"categories_nodes":[],"categories_segments":[],"categories_sizes":[],"default_left":[0,0,0,0,0,0,0,0,0,0,0,0,0,0,0,0,0,0,0,0,0,0,0],"id":61,"left_children":[1,3,5,7,9,11,13,-1,15,-1,-1,-1,17,19,21,-1,-1,-1,-1,-1,-1,-1,-1],"loss_changes":[8.4394745E1,1.3037415E0,5.1315754E1,8.4814453E-1,1.3030753E0,3.312025E-1,8.145743E1,0E0,2.578045E0,0E0,0E0,0E0,3.1464925E-1,2.2860592E1,4.1581116E0,0E0,0E0,0E0,0E0,0E0,0E0,0E0,0E0],"parents":[2147483647,0,0,1,1,2,2,3,3,4,4,5,5,6,6,8,8,12,12,13,13,14,14],"right_children":[2,4,6,8,10,12,14,-1,16,-1,-1,-1,18,20,22,-1,-1,-1,-1,-1,-1,-1,-1],"split_conditions":[1.19165146E2,2E0,1E0,1E0,4.8333335E0,1.28E2,2.375E0,-1.6648762E-2,2.375E0,2.0474637E-2,-1.0909352E-2,-1.6241748E-2,1.6666667E-1,2.5E-1,3.8756802E2,-1.5982224E-2,-3.7368922E-3,6.451338E-3,-9.86059E-3,5.3266536E-2,-1.4878208E-2,2.0712567E-2,7.132137E-2],"split_indices":[3,17,17,17,9,5,12,0,12,0,0,0,11,12,2,0,0,0,0,0,0,0,0],"split_type":[0,0,0,0,0,0,0,0,0,0,0,0,0,0,0,0,0,0,0,0,0,0,0],"sum_hessian":[1.6899647E3,1.5982759E3,9.16888E1,1.5953539E3,2.9219677E0,3.467184E1,5.7016956E1,1.5072401E3,8.8113815E1,1.0535358E0,1.868432E0,3.2264885E1,2.406956E0,3.0122417E1,2.689454E1,6.7145454E1,2.0968363E1,1.0073259E0,1.3996301E0,4.3119335E0,2.5810484E1,2.622806E0,2.4271734E1],"tree_param":{"num_deleted":"0","num_feature":"26","num_nodes":"23","size_leaf_vector":"1"}},{"base_weights":[-4.80354E-1,-1.6648991E-2,5.172121E-1,-2.0626363E-1,1.8474756E0,9.151927E-1,-4.9887195E-1,-2.0641087E-2,2.1361449E0,-1.0499379E-2,5.338153E-2,-1.6350739E-2,-7.6845796E-3,-1.3103667E-2,1.9333772E-2,7.030343E-2,3.3337142E-2],"categories":[],"categories_nodes":[],"categories_segments":[],"categories_sizes":[],"default_left":[0,0,0,0,0,0,0,0,0,0,0,0,0,0,0,0,0],"id":62,"left_children":[1,-1,3,5,7,9,11,13,15,-1,-1,-1,-1,-1,-1,-1,-1],"loss_changes":[1.2640576E2,0E0,1.14362656E2,2.5924725E1,2.2596893E1,1.8567707E1,5.571537E-1,2.1048827E0,5.094208E0,0E0,0E0,0E0,0E0,0E0,0E0,0E0,0E0],"parents":[2147483647,0,0,2,2,3,3,4,4,5,5,6,6,7,7,8,8],"right_children":[2,-1,4,6,8,10,12,14,16,-1,-1,-1,-1,-1,-1,-1,-1],"split_conditions":[1E0,-1.6648991E-2,4E0,5E-1,4.1255783E1,4.2902042E1,2E0,8E0,1E0,-1.0499379E-2,5.338153E-2,-1.6350739E-2,-7.6845796E-3,-1.3103667E-2,1.9333772E-2,7.030343E-2,3.3337142E-2],"split_indices":[18,0,13,13,4,4,13,23,16,0,0,0,0,0,0,0,0],"split_type":[0,0,0,0,0,0,0,0,0,0,0,0,0,0,0,0,0],"sum_hessian":[1.6934429E3,1.5760098E3,1.1743309E2,7.661194E1,4.0821144E1,1.5412807E1,6.1199135E1,5.5878696E0,3.5233276E1,6.4966974E0,8.91611E0,5.0374928E1,1.0824208E1,3.6483805E0,1.9394889E0,2.8235687E1,6.9975877E0],"tree_param":{"num_deleted":"0","num_feature":"26","num_nodes":"17","size_leaf_vector":"1"}},{"base_weights":[2.015352E0,3.4274885E-1,2.1266735E0,2.0647862E0,-4.6597677E-1,2.1802096E0,7.692975E-1,2.1249747E0,3.9766158E-4,5.6089632E-2,-5.3543824E-1,2.2301733E0,8.4306264E-1,2.108463E0,-4.9145302E-1,6.666815E-2,1.7214073E-2,-1.62974E-2,-1.4656791E-3,6.7898996E-2,3.3231724E-2,6.56751E-2,-1.0136832E-2,6.535746E-2,2.8916326E-4,-1.5251167E-2,6.10292E-3],"categories":[],"categories_nodes":[],"categories_segments":[],"categories_sizes":[],"default_left":[0,0,0,0,0,0,0,0,0,0,0,0,0,0,0,0,0,0,0,0,0,0,0,0,0,0,0],"id":63,"left_children":[1,3,5,7,9,11,13,15,-1,-1,17,19,21,23,25,-1,-1,-1,-1,-1,-1,-1,-1,-1,-1,-1,-1],"loss_changes":[5.474004E2,2.5845575E2,1.9888184E2,7.290222E0,2.154433E1,1.7547461E2,1.8045566E2,7.4140625E0,0E0,0E0,4.436226E-1,9.262207E1,1.55303E2,7.5906525E0,7.564907E-1,0E0,0E0,0E0,0E0,0E0,0E0,0E0,0E0,0E0,0E0,0E0,0E0],"parents":[2147483647,0,0,1,1,2,2,3,3,4,4,5,5,6,6,7,7,10,10,11,11,12,12,13,13,14,14],"right_children":[2,4,6,8,10,12,14,16,-1,-1,18,20,22,24,26,-1,-1,-1,-1,-1,-1,-1,-1,-1,-1,-1,-1],"split_conditions":[3.9354474E2,1E0,1E0,1.9010712E2,1E0,1.852591E2,4.2902042E1,4.703413E1,3.9766158E-4,5.6089632E-2,2E0,1.2149161E2,1E0,1.1492877E2,1.09E2,6.666815E-2,1.7214073E-2,-1.62974E-2,-1.4656791E-3,6.7898996E-2,3.3231724E-2,6.56751E-2,-1.0136832E-2,6.535746E-2,2.8916326E-4,-1.5251167E-2,6.10292E-3],"split_indices":[2,16,18,1,15,1,4,4,0,0,14,3,14,3,10,0,0,0,0,0,0,0,0,0,0,0,0],"split_type":[0,0,0,0,0,0,0,0,0,0,0,0,0,0,0,0,0,0,0,0,0,0,0,0,0,0,0],"sum_hessian":[2.9428171E3,1.8389392E2,2.758923E3,5.8268467E1,1.2562546E2,2.6536543E3,1.05268875E2,5.657291E1,1.6955578E0,2.8796942E0,1.22745766E2,2.557426E3,9.622825E1,5.0720898E1,5.4547977E1,5.2826714E1,3.7461936E0,1.2069249E2,2.0532777E0,2.4831255E3,7.430053E1,4.457077E1,5.165748E1,4.904438E1,1.6765141E0,5.3513424E1,1.0345528E0],"tree_param":{"num_deleted":"0","num_feature":"26","num_nodes":"27","size_leaf_vector":"1"}},{"base_weights":[-4.4985816E-1,-5.525654E-1,8.1102425E-1,-1.661514E-2,-2.2966179E-1,1.7054923E0,-1.6305197E-2,2.0002672E-2,-1.4176768E-2,-3.5373652E-1,2.0746212E0,-1.5147348E-2,1.2676036E-2,3.0913575E-2,6.495924E-2],"categories":[],"categories_nodes":[],"categories_segments":[],"categories_sizes":[],"default_left":[0,0,0,0,0,0,0,0,0,0,0,0,0,0,0],"id":64,"left_children":[1,3,5,-1,7,9,-1,-1,-1,11,13,-1,-1,-1,-1],"loss_changes":[2.1772968E2,5.105896E-1,1.5453305E2,0E0,2.0136995E0,5.8958862E1,0E0,0E0,0E0,1.6800255E0,3.9334106E0,0E0,0E0,0E0,0E0],"parents":[2147483647,0,0,1,1,2,2,4,4,5,5,9,9,10,10],"right_children":[2,4,6,-1,8,10,-1,-1,-1,12,14,-1,-1,-1,-1],"split_conditions":[1.838359E2,1.813328E2,1.0416666E0,-1.661514E-2,4.2916665E0,8.75E-1,-1.6305197E-2,2.0002672E-2,-1.4176768E-2,2E0,3.8208234E2,-1.5147348E-2,1.2676036E-2,3.0913575E-2,6.495924E-2],"split_indices":[1,1,9,0,9,9,0,0,0,14,2,0,0,0,0],"split_type":[0,0,0,0,0,0,0,0,0,0,0,0,0,0,0],"sum_hessian":[1.6768267E3,1.5510454E3,1.2578119E2,1.5442441E3,6.8012276E0,7.5599655E1,5.0181538E1,1.0779642E0,5.7232637E0,1.1498062E1,6.410159E1,9.916449E0,1.5816128E0,6.1103115E0,5.799128E1],"tree_param":{"num_deleted":"0","num_feature":"26","num_nodes":"15","size_leaf_vector":"1"}},{"base_weights":[-3.9862612E-1,7.611981E-1,-5.531641E-1,1.7289613E0,-1.6437046E-2,-3.5062236E-1,-1.6614838E-2,-1.5646348E-2,2.0925221E0,-1.409702E-2,5.7622604E-3,6.555628E-2,3.687793E-2],"categories":[],"categories_nodes":[],"categories_segments":[],"categories_sizes":[],"default_left":[0,0,0,0,0,0,0,0,0,0,0,0,0],"id":65,"left_children":[1,3,5,7,-1,9,-1,-1,11,-1,-1,-1,-1],"loss_changes":[3.0387448E2,2.5366972E2,6.7443848E-3,9.512976E1,0E0,5.8269936E-1,0E0,0E0,5.2469788E0,0E0,0E0,0E0,0E0],"parents":[2147483647,0,0,1,1,2,2,3,3,5,5,8,8],"right_children":[2,4,6,8,-1,10,-1,-1,12,-1,-1,-1,-1],"split_conditions":[3.9354474E2,1.2083334E0,4.0817358E2,1E0,-1.6437046E-2,1.2E1,-1.6614838E-2,-1.5646348E-2,1E0,